tree
version=v4
num_class=1
num_tree_per_iteration=1
label_index=0
max_feature_idx=121
objective=lambdarank
feature_names=clsallcmt clsallpr clsalliss clspronum clsiss clsallprreview clsonemonth_cmt clstwomonth_cmt clsthreemonth_cmt clsonemonth_pr clstwomonth_pr clsthreemonth_pr clsonemonth_iss clstwomonth_iss clsthreemonth_iss clsissuesenmean clsissuesenmedian clsprsenmean clsprsenmedian cmtjaccard_sim cmtjaccard_sim_mean cmtcos_sim cmtcos_mean prjaccard_sim prjaccard_sim_mean prcos_sim prcos_mean prlabel_sum prlabel_ratio prreviewcos_sim prreviewcos_sim_mean prreviewjaccard_sim prreviewjaccard_sim_mean issjaccard_sim issjaccard_sim_mean isscos_sim isscos_mean issuelabel_sum issuelabel_ratio commentissuelabel_sum commentissuelabel_ratio commentissuecos_sim commentissuecos_sim_mean commentissuejaccard_sim commentissuejaccard_sim_mean solvedisscos_sim solvedisscos_mean solvedissjaccard_sim solvedissjaccard_sim_mean solvedissuelabel_sum solvedissuelabel_ratio lan_sim readmecos_sim_mean readmecos_sim readmejaccard_sim_mean readmejaccard_sim procos_mean procos_sim projaccard_mean projaccard_sim prostopic_sum prostopic_ratio LengthOfTitle LengthOfDescription NumOfCode NumOfUrls NumOfPics buglabelnum featurelabelnum testlabelnum buildlabelnum doclabelnum codinglabelnum enhancelabelnum gfilabelnum mediumlabelnum majorlabelnum triagedlabelnum untriagedlabelnum labelnum issuesen coleman_liau_index flesch_reading_ease flesch_kincaid_grade automated_readability_index pro_gfi_ratio pro_gfi_num proclspr crtclsissnum pro_star openiss openissratio contributornum procmt rptcmt rptiss rptpr rptpronum rptallcmt rptalliss rptallpr rpt_reviews_num_all rpt_max_stars_commit rpt_max_stars_issue rpt_max_stars_pull rpt_max_stars_review rptisnew rpt_gfi_ratio ownercmt owneriss ownerpr ownerpronum ownerallcmt owneralliss ownerallpr owner_reviews_num_all owner_max_stars_commit owner_max_stars_issue owner_max_stars_pull owner_max_stars_review owner_gfi_ratio owner_gfi_num
feature_infos=[0:50] [0:10] [0:10] [0:100] [0:10] [0:10] [0:10009] [0:10017] [0:10017] [0:10] [0:10] [0:10] [0:10] [0:10] [0:10] [-0.75:1] [-0.75:1] [-1:1] [-1:1] [0:4.0529994430971659] [0:0.21428571428571427] [-0.9574030339717865:24.980813324451447] [-0.10387851297855377:0.73138445615768433] [0:2.5211974034206293] [0:0.2807017543859649] [-0.73143616318702698:7.7612938284873962] [-0.19824153184890747:0.84831041097640991] [0:10] [0:1] [-0.059095334261655807:8.0047282576560974] [-0.059095334261655807:0.81873196363449097] [0:2.4365144121482882] [0:0.27777777777777779] [0:6.9411985789578079] [0:0.84337349397590367] [-0.10648778080940247:9.9336414337158203] [-0.10648778080940247:0.99841415882110596] [0:10] [0:1] [0:10] [0:1] [-0.55443719029426575:9.1676713824272156] [-0.055443715304136276:0.9999997615814209] [0:7.9152775771582649] [0:0.87777777777777777] [-0.018145564943552017:349.6294499784708] [-0.018145564943552017:0.99441879987716675] [0:68.5554756859067] [0:0.96938775510204078] [0:58] [0:1] [0:50] [-0.12912324070930481:1.0000002384185791] [-1.2912324070930481:41.739891767501831] none none [-0.07099972665309906:1.0000002384185791] [-0.20300185680389404:33.605050444602966] [0:1] [0:16.189542483660126] [0:5] [0:1] [1:41] [0:17326] [0:76] [0:587] [0:7] [0:2] [0:4] [0:4] [0:2] [0:3] [0:2] [0:1] [0:4] [0:2] [0:3] [0:2] [0:1] [0:12] [-1:1] [-33.810000000000002:2511.9899999999998] [-4550.1000000000004:206.84] [-15.699999999999999:650.60000000000002] [-13.5:2415.9000000000001] [0:1] [0:1254] [0:68207] [0:55226] [0:40019] [1:29751] [0.0070833333000000004:1] [0:4164] [0:111191] [0:27501] [0:9284] [0:3765] [0:214] [0:469608] [0:99] none none [0:347608] [0:347669] none none [0:1] [0:1] [0:592] [0:204] [0:69] [0:48] [0:819] [0:51] none none [0:15875] [0:2039] none none [0:0.66666666669999997] [0:29]
tree_sizes=3539 3544 3511 3549 3532 3512 3540 3533 3534 3550 3543 3535 3551 3518 3533 3531 3538 3551 3536 3517 3529 3532 3506 3532 3533 3525 3519 3493 3497 3494 3527 3539 3524 3515 3531 3518 3497 3515 3517 3518 3514 3488 3519 3479 3513 3490 3549 3473 3505 3517 3484 3474 3488 3526 3471 3508 3496 3507 3482 3500 3473 3533 3505 3497 3463 3455 3494 3470 3492 3496 3444 3436 3474 3502 3450 3515 3514 3504 3490 3525 3443 3483 3455 3433 3453 3455 3469 3470 3517 3462 3469 3525 3492 3471 3461 3508 3436 3466 3476 3444

Tree=0
num_leaves=31
num_cat=0
split_feature=94 74 34 95 4 4 107 89 85 102 25 35 95 4 95 97 3 46 36 45 95 64 96 81 96 93 3 93 0 98
split_gain=830.616 526.211 118.55 161.606 222.545 206.156 85.6593 76.4687 73.0578 69.0268 82.9605 52.4009 44.6635 72.2709 43.723 40.5523 67.2171 37.0465 33.7359 53.2853 31.7999 38.848 30.9471 29.8749 32.0739 28.6354 26.9661 25.2951 24.6072 46.3446
threshold=1.0000000180025095e-35 1.0000000180025095e-35 0.12995439682603635 1.5000000000000002 1.0000000180025095e-35 1.0000000180025095e-35 0.39191176470000005 126.00000000000001 0.21283049645000005 5.5000000000000009 1.361003562808037 0.65930503606796276 4.5000000000000009 3.5000000000000004 1.5000000000000002 15.500000000000002 10.500000000000002 0.2291509956121445 0.21838723123073581 1.0283208042383196 4.5000000000000009 1.0000000180025095e-35 1.0000000180025095e-35 13.555000000000001 1.0000000180025095e-35 72564.500000000015 11.500000000000002 37701.000000000007 1.0000000180025095e-35 1.0000000180025095e-35
decision_type=2 2 2 2 2 2 2 2 2 2 2 2 2 2 2 2 2 2 2 2 2 2 2 2 2 2 2 2 2 2
left_child=2 8 3 4 9 20 12 -3 14 10 28 15 13 -7 22 26 -17 -8 25 -20 -5 -22 -2 24 -10 -16 -11 -23 -1 -30
right_child=1 7 -4 5 -6 6 17 -9 23 11 -12 -13 -14 -15 18 16 -18 -19 19 -21 21 27 -24 -25 -26 -27 -28 -29 29 -31
leaf_value=0.057767737035778546 0.1517908353426709 -0.020895299399913931 0.061525969399446045 -0.0061332424277169301 -0.05919924215248952 0.083909174537045383 -0.020615495813850776 0.074369416548655365 0.16024102662484038 0.072047087240777088 -0.026922505657183515 0.080524822820490255 -0.0091980666375674949 -0.056640517839079897 -0.0573138946111095 -0.021834420642850925 0.077487045940983892 0.12841086824467396 -0.087564241120101138 -0.031238021463415911 -0.015491742771248563 -0.070656446762435404 -0.019716799752386226 0.003588321546713567 -0.051038878042788317 0.02181445419964825 -0.013597521621710915 0.024893162692392536 -0.016450278597620754 0.057281423906924159
leaf_weight=405.8246613072115 13.556838317628715 107.16553216485772 713.83954778507177 955.38181307533523 226.01411763721262 184.54100538740749 18.838175790762762 394.20998530494398 7.3847667222435112 329.72308129657176 235.68005750922021 633.5172134343884 192.82525058859028 45.63145603146404 900.75275096370024 194.18296350870514 104.97395077449619 145.66916368849343 1030.7021776228357 200.6477566024987 478.88284050185757 276.07873888546601 46.980511230271077 229.95170476104249 265.79987624417117 48.18024318528478 41.37715810033842 30.796921718399972 166.36087305573164 174.84694281395059
leaf_count=11523 129 4934 19138 37590 10790 4115 767 9637 51 8544 9964 15118 7370 2241 42975 7789 2384 2055 54969 8912 19468 13999 1989 8360 11688 2026 1659 1031 6565 4998
internal_value=-8.97663e-10 -0.0401941 0.0234822 0.0178726 0.0354621 -0.00110571 0.0501164 0.0540072 -0.0574066 0.0448191 0.0248061 0.0599038 0.0263039 0.0560453 -0.0651385 0.0404132 0.0130174 0.111345 -0.0674661 -0.0783859 -0.0183893 -0.0332912 0.0186909 -0.0229712 -0.0453275 -0.0532963 0.0624978 -0.0610674 0.0411259 0.0213325
internal_weight=8800.32 3245.33 5554.99 4841.15 2512.5 2328.65 587.505 501.376 2743.96 2286.49 982.713 1303.77 422.998 230.172 2240.82 670.257 299.157 164.507 2180.28 1231.35 1741.14 785.759 60.5373 503.136 273.185 948.933 371.1 306.876 747.032 341.208
internal_count=332778 145670 187108 167970 79334 88636 16548 14571 131099 68544 33050 35494 13726 6356 111000 20376 10173 2822 108882 63881 72088 34498 2118 20099 11739 45001 10203 15030 23086 11563
is_linear=0
shrinkage=0.1


Tree=1
num_leaves=31
num_cat=0
split_feature=34 81 92 107 4 102 33 22 47 85 44 69 63 96 22 98 42 35 63 44 81 20 97 80 90 83 96 86 63 42
split_gain=179.898 167.154 153.173 132.282 140.729 137.738 100.385 90.32 90.2991 124.497 120.283 76.7569 84.3395 153.29 75.0618 72.1966 69.8361 66.6458 66.4112 68.1107 67.5029 70.1464 65.5164 66.7485 65.3727 75.9142 61.1918 68.6231 61.0544 57.2475
threshold=0.13866009577674779 13.035000000000002 1798.5000000000002 0.17040050065000004 1.0000000180025095e-35 5.5000000000000009 1.2007162086306244 0.4743220061063767 0.1018241295187403 0.44826687325000003 0.10055331903710817 1.0000000180025095e-35 33.500000000000007 220.50000000000003 0.13464982062578204 189.50000000000003 0.51964202523231517 0.49050289392471319 83.500000000000014 0.1265483066438079 9.1550000000000029 0.012990543259403292 72.500000000000014 0.016210279882154888 160.50000000000003 8.7500000000000018 1.5000000000000002 13.500000000000002 37.500000000000007 0.39779123663902288
decision_type=2 2 2 2 2 2 2 2 2 2 2 2 2 2 2 2 2 2 2 2 2 2 2 2 2 2 2 2 2 2
left_child=1 3 7 4 5 14 18 11 -5 28 -11 12 13 29 16 -8 -1 -2 22 20 -20 -22 23 26 25 -14 27 -7 -10 -3
right_child=17 2 -4 8 -6 6 15 -9 9 10 -12 -13 24 -15 -16 -17 -18 -19 19 -21 21 -23 -24 -25 -26 -27 -28 -29 -30 -31
leaf_value=0.012703716482412248 -0.045412068202414654 0.011352331266623855 0.042823736977016282 -0.0037755505946043678 -0.040676598438751092 -0.043482721190527984 -0.052013306844759188 0.053802777801075091 0.12129462913603495 0.041912506188961647 -0.10804162263527933 -0.083050185714073896 0.038422957608445531 -0.038970781275506322 -0.010380775974254332 0.078279296135532847 0.063200059358318059 0.032838657809430183 -0.064604918344355527 0.0023097861496677256 -0.040838782772101533 -0.0040830918676337527 0.040084024305524664 -0.029453959980623709 -0.00066151222139910885 -0.055511743021162102 -0.02041623915271723 0.029293184044882611 0.043557565248110441 0.048434152827869836
leaf_weight=933.12447195692221 115.35411097062752 738.32107054442167 1058.8966291477263 855.35447062193998 1703.0955838055233 154.7778959358111 55.560646214289591 333.40847024566028 186.684530608356 146.89588783460204 84.126169084920548 107.8635805399972 107.31815946198185 367.72053724696161 864.24688951965072 181.30848691717256 387.66206470422912 1927.9597095164645 600.35515794745879 597.35397679643938 1356.4420056418458 841.23933677692548 256.77354707350605 1318.7433425632771 6296.6552254978888 433.80037574586459 775.49149701505667 795.45985871937592 220.2067813979229 954.62365162713104
leaf_count=11682 1549 10269 10760 17717 28313 1391 587 3198 946 974 783 2590 1074 5607 16331 1439 3888 18113 8559 6934 19664 8926 3424 20741 84131 6602 17025 6600 2519 10442
internal_value=-1.16345e-10 -0.00255677 0.00677889 -0.0104397 -0.0142897 -0.00936133 -0.0162608 0.00269227 0.0174608 0.0459359 -0.012693 0.000800191 0.00181659 0.0195508 0.012532 0.0477175 0.0275248 0.0284211 -0.0185238 -0.0283433 -0.0348874 -0.0267693 -0.00842437 -0.0125156 -0.00352788 -0.036882 0.00042809 0.0174392 0.0792239 0.0322622
internal_weight=24756.8 22713.5 10398.6 12314.9 10821.6 9118.54 6933.51 9339.71 1493.27 637.913 231.022 9006.3 8898.44 2060.67 2185.03 236.869 1320.79 2043.31 6696.64 3395.39 2798.04 2197.68 3301.25 3044.47 6837.77 541.119 1725.73 950.238 406.891 1692.94
internal_count=332778 313116 134673 178443 155504 127191 95290 123913 22939 5222 1757 120715 118125 26318 31901 2026 15570 19662 93264 44083 37149 28590 49181 45757 91807 7676 25016 7991 3465 20711
is_linear=0
shrinkage=0.1


Tree=2
num_leaves=31
num_cat=0
split_feature=94 74 33 102 96 34 89 23 63 95 81 85 102 103 87 57 98 97 3 95 34 103 102 84 12 95 99 63 79 83
split_gain=256.722 299.37 156.412 291.891 221.398 128.574 120.367 115.651 98.4568 99.1573 102.591 89.6954 87.2283 75.1601 71.1237 70.1248 190.255 103.874 170.256 113.487 69.6107 68.4344 66.9104 66.2139 66.1177 63.0771 61.1738 60.5501 60.2442 58.1713
threshold=1.5000000000000002 1.0000000180025095e-35 0.75049779488779234 25.500000000000004 1.5000000000000002 0.12735600342807096 26473.000000000004 0.11741887107031748 27.500000000000004 4.5000000000000009 11.605000000000002 0.065686271200000021 8773.5000000000018 347571.50000000006 12137.000000000002 0.4380627721548081 242.50000000000003 11.500000000000002 5.5000000000000009 2.5000000000000004 0.14346223078878059 347572.50000000006 50346.000000000007 13.450000000000001 2.5000000000000004 3.5000000000000004 8.5000000000000018 200.50000000000003 1.5000000000000002 4.5500000000000007
decision_type=2 2 2 2 2 2 2 2 2 2 2 2 2 2 2 2 2 2 2 2 2 2 2 2 2 2 2 2 2 2
left_child=2 11 8 4 7 6 -3 25 24 10 13 -2 -13 -10 15 16 -5 18 -17 -20 -11 -8 -14 -22 -1 26 -4 -24 29 -21
right_child=1 5 3 14 -6 -7 21 -9 9 20 -12 12 22 -15 -16 17 -18 -19 19 28 23 -23 27 -25 -26 -27 -28 -29 -30 -31
leaf_value=0.013345347588311719 -0.049100311750715914 0.012705572013250691 -0.05763638229923658 0.039386207491444052 0.12404942963209298 -0.10171200749817805 0.097955745979699665 -0.063798256195548436 -0.010058903341345555 -0.017164531741526042 0.0098917518005073521 0.011171192249596602 -0.045725341077342441 -0.16802224353898848 0.081831160593766508 0.083578475679727399 -0.13885309289489142 0.053647236005153601 -0.097982174060362373 -0.082212495721195711 -0.15597505415106544 -0.20530366313117354 -0.0049109633199274612 -0.034041048120435874 0.0610374165227653 0.097729990515759591 0.11093890799346012 -0.1155038265624206 -0.13702282664689019 0.040564825242800882
leaf_weight=1474.5974258436472 1681.30754652631 1446.5568383567152 94.885480487486348 206.21149587060791 88.902628327021375 85.912860969314352 237.63502485025674 607.9682525669341 3637.9378097425215 1574.5676541991998 5955.7078852032428 683.31396254996071 1194.3699548389413 30.372837298549712 351.73236178566003 200.58439109800383 84.396059235441498 1595.2898158263415 150.72132339962991 45.945390473119915 73.098440729780123 7.6818007733672848 949.30886745039606 113.97075841279002 362.05970330478158 73.534179617534392 27.843618329730816 52.230147304187994 26.372896445682272 241.04312761011533
leaf_count=16960 49574 12562 1192 1921 385 924 896 10445 43779 33062 60542 13755 36358 561 2210 1333 1500 11698 2063 358 821 48 21339 842 2634 412 145 2044 333 2082
internal_value=-2.23006e-10 -0.0171789 0.00639835 0.0242923 -0.0256987 0.0176296 0.0236897 -0.0422524 0.00126193 -0.00220387 0.0017888 -0.030748 -0.0200312 -0.0113668 0.0396762 0.0338629 -0.0123767 0.0398089 0.00659493 -0.0266787 -0.0240163 0.0884595 -0.0297407 -0.0816875 0.0227469 0.0244905 -0.0193916 -0.0106784 0.00761708 0.0209088
internal_weight=23356.1 6338.32 17017.7 3795.43 893.134 1777.79 1691.87 804.232 13222.3 11385.7 9624.02 4560.53 2879.22 3668.31 2902.3 2550.56 290.608 2259.96 664.667 464.083 1761.64 245.317 2195.91 187.069 1836.66 196.263 122.729 1001.54 313.361 286.989
internal_count=332778 137500 195278 36077 12579 14430 13506 12194 159201 139607 104882 123070 73496 44340 23498 21288 3421 17867 6169 4836 34725 944 59741 1663 19594 1749 1337 23383 2773 2440
is_linear=0
shrinkage=0.1


Tree=3
num_leaves=31
num_cat=0
split_feature=94 74 33 103 99 89 92 2 97 3 44 83 107 13 107 71 85 102 102 60 25 88 95 4 102 96 24 88 107 46
split_gain=223.595 240.323 169.327 113.598 248.307 104.229 89.1077 80.3118 72.7446 192.746 69.1566 66.5766 65.9968 68.8882 63.7743 61.9329 61.6703 59.3307 58.6912 115.611 57.4923 57.1632 55.2204 91.2414 80.1282 74.1168 60.8671 58.663 57.064 77.3874
threshold=1.5000000000000002 1.0000000180025095e-35 0.78404453111297967 477.50000000000006 9.5000000000000018 35587.500000000007 1943.5000000000002 5.5000000000000009 51.500000000000007 46.500000000000007 0.13620916428245669 20.950000000000003 0.038009080900000013 1.0000000180025095e-35 0.47402159245000003 1.0000000180025095e-35 1.0000000180025095e-35 40.500000000000007 4.5000000000000009 1.0000000180025095e-35 5.2366314828395852 46480.500000000007 2.5000000000000004 1.5000000000000002 59934.500000000007 1.0000000180025095e-35 0.079501605968195457 665.50000000000011 0.54919354840000012 0.25645975768566137
decision_type=2 2 2 2 2 2 2 2 2 2 2 2 2 2 2 2 2 2 2 2 2 2 2 2 2 2 2 2 2 2
left_child=2 12 6 16 7 14 8 -5 10 -10 11 18 13 -2 -3 -8 -4 -9 19 -1 -18 -15 24 -24 26 27 -20 -26 29 -25
right_child=1 5 3 4 -6 -7 15 17 9 -11 -12 -13 -14 21 -16 -17 20 -19 22 -21 -22 -23 23 28 25 -27 -28 -29 -30 -31
leaf_value=-0.0043521187567378749 -0.026479833545775461 0.0090237296129840865 -0.11773620313347902 0.083043410625647351 0.035962604720059209 0.087012565023445093 0.023089609557097199 -0.032154153146265019 -0.050832087671052184 0.10361738465001642 0.022596538003749788 -0.051538474423819584 -0.016573841664393553 -0.066947288266112237 -0.13453263742147198 0.11868904852222169 0.035143533394224574 -0.10371886440027892 0.0014477170339860436 -0.059274451619567618 0.084221318647543147 0.077043292906400704 -0.020305894773703381 0.054857664034098412 -0.11724692824173653 -0.023628967395098951 0.036445800454219419 0.088634365245704075 0.08673906672303916 -0.069662504128304506
leaf_weight=3641.4101866591955 1274.8738526031375 1593.4091165490099 24.641011283267289 40.266262454912066 843.47196675921441 177.1552493062336 845.18742931110319 259.31082101259381 654.85922709095757 92.173138568527065 1252.945059834281 267.53815347421914 2065.0614005221869 884.8491454559844 31.558644198812544 73.672841344960034 1882.5936970663606 209.39098846318666 2905.8360710219713 428.35015890328214 273.35112942568958 28.457456224132329 1417.144660206046 121.55857569491491 14.536303170025347 92.155245899222791 599.43971381674055 288.85406110761687 138.39171952242032 84.678039175923914
leaf_count=45372 38521 13470 520 240 6546 546 8322 5971 11247 491 12749 3785 54196 29772 414 329 15728 3065 30768 8241 1635 581 29483 1139 171 1297 4730 1838 502 1109
internal_value=-5.66505e-12 -0.0164289 0.00604693 0.0254466 0.00267781 0.0141764 0.000741501 -0.0524824 -0.00155668 -0.0317752 0.000449413 -0.00232553 -0.0293965 -0.0414976 0.00623571 0.0307546 0.0395682 -0.0641255 -0.000972688 -0.0101328 0.0413661 -0.0624607 0.00561077 -0.0090834 0.0122473 0.0549128 0.00743276 0.07877 0.0370646 0.00373132
internal_weight=22507.1 6055.36 16451.8 3533.03 1352.44 1802.12 12918.7 508.968 11999.9 747.032 11252.8 9999.89 4253.24 2188.18 1624.97 918.86 2180.59 468.702 9732.35 4069.76 2155.94 913.307 5662.59 1761.77 3900.82 395.546 3505.28 303.39 344.628 206.237
internal_count=332778 137500 195278 33705 15822 14430 161573 9276 152922 11738 141184 128435 123070 68874 13884 8651 17883 9036 124650 53613 17363 30353 71037 32233 38804 3306 35498 2009 2750 2248
is_linear=0
shrinkage=0.1


Tree=4
num_leaves=31
num_cat=0
split_feature=94 74 33 96 86 89 96 95 63 87 20 96 43 49 33 46 65 64 33 102 96 21 82 89 45 81 86 81 56 97
split_gain=246.432 164.504 138.286 115.15 97.8323 95.9336 64.0692 72.2718 66.4283 79.0997 69.4735 69.5262 68.2659 56.2784 54.3948 77.9603 61.4116 59.4193 53.1194 51.3256 86.2811 96.0206 45.2698 44.9218 76.7452 44.4881 56.7832 44.3104 44.0762 44.5463
threshold=1.0000000180025095e-35 1.0000000180025095e-35 0.93466297444570523 1.0000000180025095e-35 1.5000000000000002 25847.000000000004 272.50000000000006 146.50000000000003 18.500000000000004 5764.5000000000009 0.01345950733149205 9.5000000000000018 1.011799191026441 4.5000000000000009 0.62795819924427554 0.49045978486537939 1.0000000180025095e-35 1.5000000000000002 0.53644684717917335 165.50000000000003 9.5000000000000018 3.1154276281595235 -19.194999999999997 2106.0000000000005 69.416610434651389 10.325000000000001 706.50000000000011 39.745000000000012 1.0000000180025095e-35 5.5000000000000009
decision_type=2 2 2 2 2 2 2 2 2 2 2 2 2 2 2 2 2 2 2 2 2 2 2 2 2 2 2 2 2 2
left_child=2 3 6 4 -2 -3 7 8 12 25 11 23 18 27 16 -16 -5 -18 -1 20 21 -4 -21 24 -11 -10 -27 -8 29 -24
right_child=1 5 19 14 -6 -7 13 -9 9 10 -12 -13 -14 -15 15 -17 17 -19 -20 22 -22 -23 28 -25 -26 26 -28 -29 -30 -31
leaf_value=0.011161394924165926 -0.15905207007415903 -0.0011622999913583878 0.039135884381518021 -0.038626160887428755 0.096585895102517944 0.062865760070737284 0.10494286893781013 -0.064798224296261517 -0.019539052312346268 -0.017229677139895372 0.026238285074991159 -0.1054749237172113 0.13815554043749909 -0.21520237685198171 -0.066148968449382381 0.0006193104056989307 -0.004889863118569873 -0.062751884004391162 0.076189330734510285 -0.09401317339402171 0.11875781818921199 -0.051474027355688713 0.048918540801548151 0.0059681731876212157 -0.20116658270380366 -0.00031612432106007337 -0.11944628843914953 -0.074447299702686279 0.041350887733772303 -0.074234028444037162
leaf_weight=813.44730967655778 17.160158031620085 1547.0913114022696 203.51679759519175 1527.3419970502728 117.31204599171178 275.71066821692511 117.84561673179269 160.5387843856588 1952.5697589735501 139.11707606457639 1695.9938062862493 59.385282568982802 52.641148257534951 6.5981510616838923 754.76985590381082 227.61443465063348 1592.7635086216033 199.73190431320108 148.5601788694039 26.536920974031091 55.523453222587705 274.96607229625806 51.541271117050201 3548.8576031835983 27.102919866330922 4368.0659421189921 40.380607816157863 15.590843238402156 1821.9416760091553 68.283721920568496
leaf_count=9027 673 13457 2439 49787 1344 1114 535 3035 28527 1905 18088 2125 208 92 25079 4922 41797 7497 1077 359 151 6141 321 45091 754 52949 1000 173 11905 1206
internal_value=-1.29848e-10 -0.0167694 0.00670763 -0.0271604 0.0639636 0.00852236 0.00260645 0.0018821 0.0027154 0.000609547 0.00942652 0.00187242 0.0272711 0.0698857 -0.0300086 -0.050679 -0.0238919 -0.0113372 0.0212035 0.0282545 0.000758498 -0.0129342 0.0357142 0.00358836 -0.0472214 -0.00697303 -0.00140734 0.0839828 0.0374871 -0.0212614
internal_weight=21908.5 6259.5 15649 4436.69 134.472 1822.8 13146.7 13006.7 12846.1 11831.5 5470.46 3774.46 1014.65 140.035 4302.22 982.384 3319.84 1792.5 962.007 2502.31 534.006 478.483 1968.3 3715.08 166.22 6361.02 4408.45 133.436 1941.77 119.825
internal_count=332778 145670 187108 131099 2017 14571 164586 163786 160751 150439 67963 49875 10312 800 129082 30001 99081 49294 10104 22522 8731 8580 13791 47750 2659 82476 53949 708 13432 1527
is_linear=0
shrinkage=0.1


Tree=5
num_leaves=31
num_cat=0
split_feature=94 74 22 62 33 89 42 63 36 83 85 96 47 99 13 83 98 93 92 82 35 45 96 44 97 3 3 76 99 20
split_gain=155.317 180.64 119.614 69.1941 62.705 62.5696 58.2359 67.0027 63.8639 52.2894 50.8578 50.855 78.3104 52.9238 49.5693 62.1645 69.2251 76.8728 50.4057 48.3875 43.2774 46.4146 42.8712 44.4585 41.9777 89.264 45.6638 41.1717 40.5027 40.2595
threshold=1.5000000000000002 1.0000000180025095e-35 0.37813800573349005 12.500000000000002 1.167670886976006 35587.500000000007 0.58507460355758678 69.500000000000014 0.45939147472381597 13.050000000000002 0.052639541350000006 2.5000000000000004 0.22128427567095357 30.500000000000004 9.5000000000000018 1.8500000000000003 107.50000000000001 20316.000000000004 1943.5000000000002 62.395000000000003 2.6653102934360509 0.75009357929229747 582.50000000000011 0.14341006231887404 21.500000000000004 16.500000000000004 27.500000000000004 1.0000000180025095e-35 20.500000000000004 0.074074709056553986
decision_type=2 2 2 2 2 2 2 2 2 2 2 2 2 2 2 2 2 2 2 2 2 2 2 2 2 2 2 2 2 2
left_child=2 10 3 6 22 -3 7 8 14 -5 -2 13 -13 -9 18 -16 17 -17 28 -10 27 -22 23 29 26 -26 -8 -12 -1 -4
right_child=1 5 4 9 -6 -7 24 11 19 -11 20 12 -14 -15 15 16 -18 -19 -20 -21 21 -23 -24 -25 25 -27 -28 -29 -30 -31
leaf_value=-0.0070382816474431689 -0.045545099044729385 0.0064247520822927999 0.0061519097460898545 -0.01455216584712753 0.059262309342692332 0.072123634181654447 0.03082318239966287 -0.0074757381920018953 0.046319338730092287 -0.080935084798023749 -0.0093299146789600339 -0.064836743644660633 0.061603810495316151 0.030392762379395418 0.14058696122951117 -0.079899940671458447 0.058002797264524966 0.075174530999968014 0.067562337332195951 -0.0044446514869260307 -0.058703540298780825 -0.01112278911031701 0.12069801000729252 0.055777540640537429 -0.043435746646834562 0.06428855614715627 -0.068556280850396265 -0.11183474496769144 0.033727608895326215 0.049193301325357437
leaf_weight=2751.1042499217438 1024.5668404233875 1561.0537901800708 1898.5049185435055 1056.53607255721 420.13855272659566 159.79864711873233 1389.821422228124 4775.6011640495853 688.27724485006183 133.67181591829285 1929.1204224703251 294.15901364246383 58.769340877654031 399.96772488579154 49.827443755231798 101.47481463337317 212.52190413256176 46.667239799629897 103.44993781356607 258.21013234788552 483.51954784576083 355.9415819956921 39.543363109230995 248.28735745628364 251.99456434231251 110.71874658414163 47.826966719469056 39.99655126594007 267.40931484336033 245.40983843919821
leaf_count=36184 36277 13884 22572 14523 2725 546 13783 63500 6256 2477 58393 7258 460 4593 124 1831 1427 352 758 3281 18911 7614 99 1919 4286 834 904 1875 2998 2134
internal_value=-7.22011e-11 -0.0143904 0.00504257 0.0009734 0.0235886 0.0125256 0.00328985 0.000311132 0.0094019 -0.0220076 -0.0264741 -0.0070538 -0.043782 -0.00454926 0.00322089 0.0358894 0.021425 -0.0310489 -0.00107453 0.0324705 -0.019517 -0.0385287 0.0174252 0.0157181 0.0198473 -0.0105528 0.0275171 -0.011412 -0.00342684 0.0110788
internal_weight=21403.9 5554 15849.9 12998 2851.88 1720.85 11807.8 10007.4 4478.94 1190.21 3833.14 5528.5 352.928 5175.57 3532.45 410.491 360.664 148.142 3121.96 946.487 2808.58 839.461 2431.75 2392.2 1800.36 362.713 1437.65 1969.12 3018.51 2143.91
internal_count=332778 137500 195278 165829 29449 14430 148829 129022 53211 17000 123070 75811 7718 68093 43674 3734 3610 2183 39940 9537 86793 26525 26724 26625 19807 5120 14687 60268 39182 24706
is_linear=0
shrinkage=0.1


Tree=6
num_leaves=31
num_cat=0
split_feature=94 33 74 96 89 79 91 102 0 94 87 63 87 47 85 96 45 45 102 85 102 57 90 95 19 85 13 102 43 34
split_gain=137.225 111.992 111.366 75.2661 63.9116 61.9379 69.1189 59.3177 104.398 51.7593 49.1208 53.5711 45.9909 67.0905 48.2286 48.805 87.0773 54.6653 45.1121 67.2993 58.0108 44.7062 44.1313 43.3639 43.61 43.2748 41.6544 39.3315 38.8182 38.8117
threshold=1.0000000180025095e-35 0.74411398810332119 1.0000000180025095e-35 1.0000000180025095e-35 23830.500000000004 1.0000000180025095e-35 0.24376383050000003 20.500000000000004 1.0000000180025095e-35 1.5000000000000002 11187.000000000002 30.500000000000004 1165.0000000000002 26.697154550192408 0.30851361240000003 2.5000000000000004 0.58111843466758739 2.2462435960769658 7102.5000000000009 0.074164201200000016 61196.000000000007 4.5156365483999261 2689.5000000000005 2.5000000000000004 0.5290086811905349 0.047464836000000003 1.0000000180025095e-35 5627.0000000000009 0.69070987973043463 0.14583523844818572
decision_type=2 2 2 2 2 2 2 2 2 2 2 2 2 2 2 2 2 2 2 2 2 2 2 2 2 2 2 2 2 2
left_child=1 5 3 9 22 -1 -7 8 25 -2 11 28 13 -13 15 17 27 29 19 -5 26 -19 -4 -8 -25 -3 -20 -17 -9 -14
right_child=2 7 4 18 -6 6 23 10 -10 -11 -12 12 14 -15 -16 16 -18 21 20 -21 -22 -23 -24 24 -26 -27 -28 -29 -30 -31
leaf_value=-0.0030776550707835668 0.10256214400998678 -0.043034472532045148 -0.0061364327336898257 -0.047709150032861136 0.048860136675814736 0.027378337514368536 0.0028363183479177489 0.0078824068475017214 -0.032508294325764457 -0.013673268151812808 0.058429591552405291 -0.0047538737607704514 0.018584971908986812 -0.18249414735868907 0.068926060129688466 0.032715349731555453 0.044180255743090383 -0.16489337277915184 -0.027968969253548311 0.018187921417112906 -0.0096686769395543139 0.01704155094910496 0.058198448897602062 -0.082714819110015422 0.079460552803028772 0.071049799010816511 -0.056150994883315188 -0.13485724447805111 0.082738056116878511 0.062155782358768966
leaf_weight=9685.277645034279 79.276391415391117 40.60070847440511 1334.8096039207885 225.67121895332821 312.49316010111943 1472.9258552418323 383.55516172014177 100.70710807153955 470.91185510437936 74.135652696189936 419.01960513403174 385.22473422484472 1060.7441505806055 22.475867429748178 200.27857894124463 17.431288830004632 75.486531923059374 27.530630034860224 1319.2430502035422 494.75971689634025 957.94592462270521 26.513570419512689 115.88011860661209 125.91431513545103 19.09587117144838 183.63381023565307 870.55398894357495 71.293882549740374 221.96967465244234 253.25357810012065
leaf_count=129122 294 779 12447 7900 1471 14769 4507 789 10361 1723 2387 3633 8901 233 1044 138 428 806 47229 10591 29048 244 653 3638 222 1476 34314 1310 1076 1245
internal_value=-1.77856e-11 0.00497068 -0.0131158 -0.022303 0.00783897 0.000231766 0.0162462 0.0204533 -0.00576659 0.0463919 0.0267778 0.0213928 0.0156663 -0.0145524 0.0227773 0.0167453 -0.0347674 0.0229286 -0.0250274 -0.00245399 -0.0301938 -0.0756378 -0.000997406 -0.0147753 -0.0613585 0.0503933 -0.0391727 -0.101935 0.0593757 0.0269826
internal_weight=21048.6 15263.8 5784.77 4021.59 1763.18 11686.8 2001.49 3577.08 695.146 153.412 2881.93 2462.91 2140.23 407.701 1732.53 1532.25 164.212 1368.04 3868.17 720.431 3147.74 54.0442 1450.69 528.565 145.01 224.235 2189.8 88.7252 322.677 1314
internal_count=332778 187108 145670 131099 14571 152258 23136 34850 12616 2017 22234 19847 17982 3866 14116 13072 1876 11196 129082 18491 110591 1050 13100 8367 3860 2255 81543 1448 1865 10146
is_linear=0
shrinkage=0.1


Tree=7
num_leaves=31
num_cat=0
split_feature=94 33 74 96 95 45 45 89 86 80 44 63 4 91 84 85 65 102 95 4 96 92 79 58 64 102 102 33 43 42
split_gain=109.113 109.204 90.2982 67.4125 66.1805 88.5991 59.904 55.5677 53.2831 49.2994 57.8926 47.0787 45.6189 43.1875 50.3889 42.9055 42.6879 42.4464 44.0015 63.0918 43.9732 42.4451 42.2028 48.0511 40.4569 39.9705 49.7906 42.4569 38.6227 37.0455
threshold=1.5000000000000002 1.1489059277542906 1.0000000180025095e-35 272.50000000000006 19.500000000000004 1.8174885064363482 81.589436516165748 25847.000000000004 313.50000000000006 1.0000000180025095e-35 0.12858311777909895 53.500000000000007 1.5000000000000002 0.17868240275000002 24.250000000000004 0.084103020300000011 3.5000000000000004 2551.5000000000005 1.5000000000000002 1.0000000180025095e-35 1.0000000180025095e-35 828.50000000000011 1.0000000180025095e-35 0.14827006826122266 2.5000000000000004 7936.5000000000009 12554.000000000002 0.25833526323915396 1.1179396494757883 0.59087976813316356
decision_type=2 2 2 2 2 2 2 2 2 2 2 2 2 2 2 2 2 2 2 2 2 2 2 2 2 2 2 2 2 2
left_child=1 3 15 4 9 -6 16 -4 -8 10 11 13 -5 24 25 -2 -7 18 19 -3 -19 -13 -17 -24 28 29 -27 -28 -1 -15
right_child=2 17 7 12 5 6 8 -9 -10 -11 -12 21 -14 14 -16 22 -18 20 -20 -21 -22 -23 23 -25 -26 26 27 -29 -30 -31
leaf_value=0.042196647611384391 -0.034018890174438619 0.013743481260598761 -0.0011173334740572441 -0.074583068893586499 -0.047930167479711031 0.053743766669224792 -0.15124051990337392 0.04972544824695594 0.080809245908723459 -0.0032037660088980804 0.033950210856796552 -0.014028347300033543 0.072327446534987849 -0.020995262062472559 0.046603724105270708 -5.2465216151721752e-05 -0.19364047433559139 0.058002163346858461 0.029903021613025507 -0.11552388724057915 0.0092195355640961301 0.010192375818984878 -0.036840896803275264 0.061257559154229715 -0.049334560226613623 0.092883287284236671 -0.034769108518123641 0.040237495910992384 -0.078963468445821902 0.088403296950343407
leaf_weight=825.26153552660253 1557.8460855524172 98.411558450432494 1473.0105666118034 23.683363393880427 584.38572474601096 203.12429237924516 32.283532727044076 251.69401601795107 14.268826773390172 6979.9227623796323 813.29762083548121 1612.5775399560225 196.5738273859024 754.57043429045007 240.97283310606144 1197.3238354194909 7.223308738321065 641.14948984631337 280.6391018582508 61.259845625725575 259.59769465459976 1312.3397733271122 719.10079454752849 53.657791995210573 56.103174490039237 80.311904952395707 144.86577887134627 157.52660822961479 27.176558681996539 32.277806377504021
leaf_count=7622 61051 1286 13337 373 13904 1728 574 1093 146 93271 7611 23301 842 9980 1989 34339 211 3519 2566 1639 2438 16871 26803 877 714 533 2354 1243 372 191
internal_value=-2.43944e-10 0.00423546 -0.0124499 0.00164168 0.000770573 -0.0264135 0.0225318 0.00630239 -0.0801146 0.00252475 0.00912583 0.00527578 0.0565308 0.0159168 0.0049645 -0.0216173 0.0452486 0.0315042 0.00605822 -0.0358515 0.0439429 -0.00316109 -0.0118108 -0.0300293 0.0329203 -0.00361479 0.022893 0.00430441 0.0383339 -0.0165076
internal_weight=20692.4 15439.8 5252.63 14098.7 13878.5 841.286 256.9 1724.7 46.5524 13037.2 6057.28 5243.98 220.257 2319.07 1410.53 3527.93 210.348 1341.06 440.311 159.671 900.747 2924.92 1970.08 772.759 908.541 1169.55 382.704 302.392 852.438 786.848
internal_count=332778 195278 137500 183830 182615 16563 2659 14430 720 166052 72781 65170 1215 24998 16290 123070 1939 11448 5491 2925 5957 40172 62019 27680 8708 14301 4130 3597 7994 10171
is_linear=0
shrinkage=0.1


Tree=8
num_leaves=31
num_cat=0
split_feature=94 33 74 85 103 102 96 60 12 22 97 0 3 103 96 22 89 102 33 98 57 14 57 98 98 89 103 92 103 99
split_gain=89.2955 105.585 83.9045 49.3729 73.6944 80.8742 94.2654 75.1721 68.3371 66.3985 57.6712 83.5456 72.2407 52.6078 52.1026 85.9996 70.0919 54.6109 51.7313 65.8621 121.64 49.9685 47.5908 127.26 93.7969 47.4977 46.925 47.6711 46.0324 87.8734
threshold=1.5000000000000002 0.87331786641244313 1.0000000180025095e-35 0.31206861520000007 887.50000000000011 4429.0000000000009 1.0000000180025095e-35 1.0000000180025095e-35 2.5000000000000004 0.33614307641983038 5.5000000000000009 1.5000000000000002 4.5000000000000009 87801.000000000015 1.0000000180025095e-35 0.22913353145122531 2541.0000000000005 1949.5000000000002 0.28246472133529221 8.5000000000000018 1.3922279700636866 7.5000000000000009 1.641257029026747 194.50000000000003 8.5000000000000018 25847.000000000004 5575.5000000000009 1436.5000000000002 197.00000000000003 12.500000000000002
decision_type=2 2 2 2 2 2 2 2 2 2 2 2 2 2 2 2 2 2 2 2 2 2 2 2 2 2 2 2 2 2
left_child=1 3 -2 4 18 7 8 14 10 -8 12 -12 -7 -5 26 16 -16 -17 19 20 -1 -21 23 -20 -24 -4 -6 -28 -3 -30
right_child=2 28 25 13 5 6 9 -9 -10 -11 11 -13 -14 -15 15 17 -18 -19 22 21 -22 -23 24 -25 -26 -27 27 -29 29 -31
leaf_value=0.018184625972588291 -0.020367307122126449 0.03116623675089944 -8.2810016323108435e-05 0.032684188406217472 0.040009023621229996 0.12778757710660568 -0.039532333461028406 -0.037244505626089212 -0.049241468368205615 0.035861835900285959 -0.014273781549523808 0.050275834276027526 -0.045405874368847521 -0.0052757288075745111 -0.12033987145995545 0.10511617374750171 0.033780485098619494 -0.080558232299544452 0.01035968121182515 -0.033292972445172257 -0.071514930025243437 0.067247450587875165 -0.059373476077098933 -0.10051616882871083 0.025048306130000086 0.047448705877409271 -0.0087359163614030826 0.025607970340044778 -0.032502749499614285 0.028574743611050543
leaf_weight=793.36465177545324 3442.8959622670081 1774.7540758537361 1446.4757048331085 879.51162067730911 258.27637148159556 136.93783219880424 342.51211840845644 551.03959522861987 86.852600043173879 177.26571522676386 268.26017874164972 793.92940042866394 29.222962949890643 624.19618327077478 45.462514664744958 160.46784310927615 84.087697012815624 17.575746125541627 334.88125911867246 1901.2462412527238 186.7712416673894 50.752380189020187 152.28588348790072 149.83605487411842 969.20128767704591 245.99049935303628 3033.5884114540531 466.28518927609548 392.18165570113342 589.82150642457418
leaf_count=9714 123070 14619 13337 8055 2585 521 7437 9257 1055 2251 3830 6406 472 8542 978 1058 1023 298 4069 34571 3931 436 3167 3160 10585 1093 39539 4741 8472 4506
internal_value=-8.88645e-11 0.00384054 -0.0114053 -6.79578e-05 -0.00239325 0.00447468 0.0222337 -0.00258381 0.0364823 -0.0138198 0.0425436 0.0339736 0.0973278 0.0169268 0.00211383 0.0416831 -0.0203043 0.0867871 -0.0121568 -0.0200588 0.00109179 -0.0306789 0.00226834 -0.0239143 0.0135847 0.00682563 -0.0011248 -0.00416031 0.0215541 0.00418228
internal_weight=20385.9 15250.6 5135.36 12493.8 10990.1 6451.76 1834.98 4616.78 1315.2 519.778 1228.35 1062.19 166.161 1503.71 4065.74 307.594 129.55 178.044 4538.34 2932.13 980.136 1952 1606.2 484.717 1121.49 1692.47 3758.15 3499.87 2756.76 982.003
internal_count=332778 195278 137500 167681 151084 81451 21972 59479 12284 9688 11229 10236 993 16597 50222 3357 2001 1356 69633 48652 13645 35007 20981 7229 13752 14430 46865 44280 27597 12978
is_linear=0
shrinkage=0.1


Tree=9
num_leaves=31
num_cat=0
split_feature=95 4 4 94 74 34 97 98 3 92 90 87 96 47 98 65 85 18 86 98 0 43 97 3 57 110 63 35 64 41
split_gain=101.869 331.591 194.106 218.381 126.212 107.365 71.7899 65.1668 68.5497 65.0916 60.4603 55.2551 51.4983 176.776 62.9855 46.9947 47.724 52.4105 45.2318 43.3313 121.885 51.6513 51.9725 70.1517 66.7209 42.1073 42.3589 42.2308 41.7025 41.064
threshold=2.5000000000000004 1.5000000000000002 1.5000000000000002 1.0000000180025095e-35 1.0000000180025095e-35 0.11580630718178998 4.5000000000000009 1.0000000180025095e-35 1.0000000180025095e-35 30.500000000000004 304.50000000000006 20512.500000000004 1.0000000180025095e-35 0.0613139992839241 48.500000000000007 1.0000000180025095e-35 0.30447199095000005 -0.033080808080808079 57.500000000000007 1.0000000180025095e-35 1.0000000180025095e-35 0.70365658818520527 1.5000000000000002 2.5000000000000004 0.12018822133541109 1.0000000180025095e-35 26.500000000000004 2.5687157958745961 1.0000000180025095e-35 6.4444516301155099
decision_type=2 2 2 2 2 2 2 2 2 2 2 2 2 2 2 2 2 2 2 2 2 2 2 2 2 2 2 2 2 2
left_child=1 5 4 12 11 19 18 8 -7 10 -6 15 13 -4 -14 29 17 -17 -3 20 -1 22 23 -21 -24 26 -23 -27 -19 -2
right_child=2 6 3 -5 9 7 -8 -9 -10 -11 -12 -13 14 -15 -16 16 -18 28 -20 21 -22 25 24 -25 -26 27 -28 -29 -30 -31
leaf_value=0.013867930089355327 -0.03806898482604127 -0.087769270249769785 0.058863349313591842 -0.025274244053609785 0.0270682495196891 0.063608275224792885 -0.10332970426463205 0.039737045664379099 -0.051337902607190601 0.016491717999299427 -0.095534715934778316 0.0056225610107228556 0.094469208124582371 -0.051704395723790875 0.036636677810969485 -0.098454131617604634 0.017167631104581325 -0.0099159618324936721 -0.0066576089794699927 0.09543853467484649 -0.039901528775146328 0.070930455829268935 -0.019709870462627871 -0.050990279517396681 0.010069584413463452 -0.063449479391417582 0.019594890847000446 0.066400946271798808 -0.036877277929798107 0.063413789114167562
leaf_weight=1048.4556316566886 2193.320730275067 102.32071150583215 415.54026430821978 739.14326043531764 64.992862940096529 75.143390987999737 275.42036524985451 1650.7916781774256 167.59850049694069 1456.2930481289513 105.53615779522806 652.16864871419966 302.5946598041337 221.7709256997332 498.66336320783012 86.092956800945103 358.59190382761881 1679.6117079686082 209.55056289490312 121.99816887546331 705.09507152985316 171.82268002070487 1203.8245750044007 44.707712605129927 2006.1943362449529 107.79211218818091 2490.6355369859375 32.627499394118786 871.29655490338337 40.611113967839628
leaf_count=10053 70567 2441 3010 21230 1187 468 5813 13005 2728 10747 1744 14671 1329 3834 3419 3039 6596 42154 3787 815 14545 940 17425 812 21984 1653 25323 319 26497 643
internal_value=-6.42725e-11 0.00686579 -0.00738164 0.018904 -0.0150053 0.0112281 -0.0661253 0.0326232 -0.0157551 0.00964681 -0.0488077 -0.0218239 0.041603 0.0203881 0.0584771 -0.0252467 -0.0170604 -0.0217149 -0.0332692 0.00612138 -0.00775253 0.0100583 0.00172889 0.0561688 -0.00109834 0.020093 0.0229078 -0.0332778 -0.019125 -0.0362241
internal_weight=20100.2 10414 9686.23 2177.71 7508.52 9826.69 587.292 1893.53 242.742 1626.82 170.529 5881.69 1438.57 637.311 801.258 5229.52 2995.59 2637 311.871 7933.15 1753.55 6179.6 3376.72 166.706 3210.02 2802.88 2662.46 140.42 2550.91 2233.93
internal_count=332778 122111 210667 32822 177845 110070 12041 16201 3196 13678 2931 164167 11592 6844 4748 149496 78286 71690 6228 93869 24598 69271 41036 1627 39409 28235 26263 1972 68651 71210
is_linear=0
shrinkage=0.1


Tree=10
num_leaves=31
num_cat=0
split_feature=94 34 74 96 96 95 4 4 96 45 85 97 102 96 26 8 96 90 90 74 84 96 91 86 102 18 83 89 3 97
split_gain=106.596 88.9182 66.1946 65.2969 52.4242 55.7997 158.312 105.209 62.1554 103.596 60.614 53.5907 52.678 60.7018 50.5651 50.2083 47.8546 47.7664 46.9343 44.7504 44.075 42.4138 42.0972 41.578 40.2555 40.0089 39.8143 42.8752 38.1244 131.123
threshold=1.0000000180025095e-35 0.12272208909035426 1.0000000180025095e-35 1.0000000180025095e-35 272.50000000000006 1.5000000000000002 1.0000000180025095e-35 1.0000000180025095e-35 1.0000000180025095e-35 1.0000000180025095e-35 0.047750739450000003 4.5000000000000009 8645.5000000000018 1.5000000000000002 0.22687178105115893 1.5000000000000002 1.0000000180025095e-35 1093.5000000000002 363.50000000000006 1.0000000180025095e-35 15.450000000000001 9.5000000000000018 0.056623511300000005 1.5000000000000002 7.5000000000000009 0.061287878787878801 11.750000000000002 3464.5000000000005 23.500000000000004 27.500000000000004
decision_type=2 2 2 2 2 2 2 2 2 2 2 2 2 2 2 2 2 2 2 2 2 2 2 2 2 2 2 2 2 2
left_child=1 4 3 23 5 6 12 19 9 11 -11 15 16 18 -10 -9 26 20 -14 21 -3 -7 -4 -2 -8 -13 28 -28 -1 -30
right_child=2 17 22 -5 -6 7 24 8 14 10 -12 25 13 -15 -16 -17 -18 -19 -20 -21 -22 -23 -24 -25 -26 -27 27 -29 29 -31
leaf_value=4.4912040518094799e-05 -0.13428661496876768 0.00066443323293237182 0.061135548163866439 -0.02201314323900215 0.048370746335918334 -0.0158000209902792 -0.029428783911995621 0.013823697577719486 -0.054030179556137016 -0.15225045091481199 -0.030425521900456883 0.055674143655602762 0.0027247163905357551 -0.066574012983932937 0.051447681679278684 -0.10186361511500625 0.05323452204519713 0.039487476914875808 0.038173537581638162 0.10746715364872701 0.035532120732668586 -0.063855669431614206 9.9646538123216303e-05 0.065101944113296728 -0.095623114356740313 -0.054324806221531574 -0.019936455159430128 0.033879725976348904 -0.080601823692145205 0.059518793669065734
leaf_weight=3131.0110905007459 11.411954733310266 1194.7045423346572 121.92422653734684 3578.5994365086081 226.8316756580025 3254.6674069406581 219.0950786100002 113.47645655786619 50.068051219917834 53.670155021362007 170.86390223843046 313.3927744908724 536.44260620442219 71.510572638828307 492.69193452876061 56.042370811570436 186.28939642338082 920.100712407846 1229.6109681194648 28.429261251352727 520.4674409723375 194.64526943163946 1543.9991224239348 125.15639991694479 158.21614768565632 36.966052176430821 193.58949733804911 629.19087250286248 213.14110906305723 97.258393753319979
leaf_count=36575 673 12124 652 129082 1265 63421 5608 1263 823 1665 2894 2388 4822 1019 3659 1199 1417 8102 9690 230 4528 6463 13919 1344 4316 464 2288 6140 4214 531
internal_value=-5.70234e-11 0.00451661 -0.0119963 -0.0194233 0.000766352 -0.000178349 0.00572915 -0.00844199 0.0159827 -0.00278104 -0.0595452 0.0217353 0.00950433 0.0237486 0.0417177 -0.0244222 0.00362301 0.0211058 0.0274059 -0.017482 0.011245 -0.0185118 0.00456669 0.0484406 -0.0571857 0.0440683 0.00145563 0.0212175 -0.00326908 -0.0366974
internal_weight=19673.5 14292.4 5381.09 3715.17 11657.1 11430.3 6665.36 4764.91 1287.17 744.412 224.534 519.878 6288.04 1837.56 542.76 169.519 4450.48 2635.27 1766.05 3477.74 1715.17 3449.31 1665.92 136.568 377.311 350.359 4264.19 822.78 3441.41 310.4
internal_count=332778 187108 145670 131099 162354 161089 76620 84469 14355 9873 4559 5314 66696 15531 4482 2462 51165 24754 14512 70114 16652 69884 14571 2017 9924 2852 49748 8428 41320 4745
is_linear=0
shrinkage=0.1


Tree=11
num_leaves=31
num_cat=0
split_feature=94 74 33 42 63 102 96 25 87 85 102 63 34 91 4 63 95 4 81 34 4 95 89 34 57 81 88 20 93 35
split_gain=107.3 80.0465 69.4615 45.6042 53.4359 43.2353 92.5039 60.2763 42.3431 38.8835 46.6018 40.0126 37.8415 44.3154 37.7553 36.9105 38.6525 85.8789 51.7633 44.0595 41.0244 56.0642 42.0775 40.2955 35.9865 35.2148 34.3147 37.6225 33.9815 33.6233
threshold=1.0000000180025095e-35 1.0000000180025095e-35 0.78404453111297967 0.53777539730072033 95.500000000000014 165.50000000000003 1.5000000000000002 1.5513179004192355 1546.5000000000002 0.075955023150000009 7657.5000000000009 92.500000000000014 0.10315137091834735 0.053151812450000009 1.0000000180025095e-35 19.500000000000004 1.5000000000000002 1.0000000180025095e-35 7.6150000000000011 0.17270291174395044 1.0000000180025095e-35 4.5000000000000009 289.00000000000006 0.10907491045890176 10.540671929717066 14.325000000000001 1639.5000000000002 0.032224427991785452 8603.5000000000018 1.0757789611816408
decision_type=2 2 2 2 2 2 2 2 2 2 2 2 2 2 2 2 2 2 2 2 2 2 2 2 2 2 2 2 2 2
left_child=2 9 3 15 -5 6 7 -4 -6 -2 -11 28 13 -3 -8 -1 17 18 -17 -20 -18 23 -23 -22 -24 -10 -7 -28 -12 -14
right_child=1 12 5 4 8 26 14 -9 25 10 11 -13 29 -15 -16 16 20 -19 19 -21 21 22 24 -25 -26 -27 27 -29 -30 -31
leaf_value=0.015077183402751354 -0.03227642762545619 0.082391155610935574 0.022157001858993462 0.029837996827419749 -0.057552754478388882 0.003286378568752614 -0.13037634395788164 -0.0463174097926419 -0.0044219652958042734 0.015016143728095642 -0.029066839164551252 -0.042681012912119759 0.02109214883772113 0.0075134198221902043 0.094974707794593577 -0.037574813375074956 -0.021876887521977667 -0.060054127486851398 0.0054979989700177853 0.10803460484864716 0.00078940161478553695 0.046857613448106759 -0.07351656365011329 0.070437849374001313 0.06442814957674016 0.02242599619235652 0.021019482929534244 0.051880737976462081 0.0063696101895538149 -0.067225146181196099
leaf_weight=958.25225262902677 1557.1895583586884 83.94019779143855 202.43731955322437 1015.3826291004661 112.76429282431491 593.04637217544951 8.0133770178072137 352.24285851162858 1343.5410642491188 505.93158932973165 477.37934725423111 517.78317581885494 66.9035251615569 1354.0998342693492 102.93694189097732 284.77650953328703 2067.2720004083822 224.72082281997427 3628.9829255057266 42.396138831973076 170.65205453522503 53.213439536746591 143.72907686315011 161.85237895557657 21.777044612914324 767.69416143163107 1219.7159012341872 584.23217075271532 624.76440054137493 121.19516521465266
leaf_count=11365 61023 351 2542 11087 1684 5159 138 9800 18731 11247 16559 20980 609 11593 343 4493 46600 5145 39998 183 2050 473 2877 1093 252 8911 10487 3697 21290 2018
internal_value=8.50548e-11 -0.0121121 0.00457378 0.000864455 0.0108299 0.0178929 -0.00465412 -0.0213268 0.00215167 -0.0202711 -0.0114771 -0.0197515 0.006367 0.0118841 0.0786987 -0.00329687 -0.00588637 8.04992e-05 0.00349632 0.00668207 -0.0154135 0.00882634 -0.0304955 0.034692 -0.055366 0.00534058 0.0241541 0.0310143 -0.00897923 -0.0358122
internal_weight=19368.8 5309.19 14059.6 10997 3239.38 3062.62 665.63 554.68 2224 3683.05 2125.86 1619.93 1626.14 1438.04 110.95 7757.62 6799.37 4180.88 3956.16 3671.38 2618.5 551.224 218.72 332.504 165.506 2111.24 2396.99 1803.95 1102.14 188.099
internal_count=332778 145670 187108 154942 40413 32166 12823 12342 29326 131099 70076 58829 14571 11944 481 114529 103164 49819 44674 40181 53345 6745 3602 3143 3129 27642 19343 14184 37849 2627
is_linear=0
shrinkage=0.1


Tree=12
num_leaves=31
num_cat=0
split_feature=94 74 34 71 85 85 95 4 4 45 63 43 110 63 89 95 4 107 45 35 4 97 20 102 96 90 13 85 23 0
split_gain=99.2313 69.727 68.2195 47.1652 44.4769 41.5888 41.5273 283.921 104.857 66.6364 46.7335 39.8804 37.0923 38.7935 36.3898 35.1696 101.32 60.531 53.4275 46.9918 44.2545 46.6694 40.3444 66.2017 58.8048 44.9126 41.6977 39.6957 38.3989 38.2128
threshold=1.5000000000000002 1.0000000180025095e-35 0.13960005850285914 1.0000000180025095e-35 0.31646112425000006 0.13098414165000002 1.5000000000000002 1.0000000180025095e-35 1.0000000180025095e-35 2.5578586533665661 100.50000000000001 1.591307928427744 1.0000000180025095e-35 157.50000000000003 34128.500000000007 6.5000000000000009 4.5000000000000009 0.16378539490000002 0.3979316651821137 0.33303907513618475 4.5000000000000009 3.5000000000000004 0.016280109393650398 1434.5000000000002 1.0000000180025095e-35 1534.5000000000002 2.5000000000000004 0.057085682000000006 0.088095749687928479 2.5000000000000004
decision_type=2 2 2 2 2 2 2 2 2 2 2 2 2 2 2 2 2 2 2 2 2 2 2 2 2 2 2 2 2 2
left_child=2 5 3 4 11 -2 7 -4 -8 -10 -9 15 -6 -14 -3 20 19 18 -18 -17 22 -22 -1 24 27 26 -25 -24 -27 -26
right_child=1 14 6 -5 12 -7 8 10 9 -11 -12 -13 13 -15 -16 16 17 -19 -20 -21 21 -23 23 25 29 28 -28 -29 -30 -31
leaf_value=-0.0034841279324960618 -0.029310687441777217 4.8709075308486319e-05 0.048605491154865871 0.053451676034818513 0.032496497898206883 -0.0060461087412655721 -0.025214755923429151 -0.02801502221157607 0.066763508487342554 -0.048777001900780471 -0.12598416288998376 0.040231397077340365 0.012258152771290741 -0.048117815758187063 0.052391176014026423 -0.0079036284374080206 0.053259821701726107 0.082211870225685449 -0.062036397178562054 -0.046876842507572007 -0.0074480891481496433 -0.10212351648654774 -0.051468503508971676 -0.0019958452543526167 0.1098303362920863 -0.04269322434311397 0.033647145038771309 -0.0051033648526366791 0.055142755440671126 0.0063463034832547689
leaf_weight=5841.3373068061192 2059.5086292912893 1451.3886186685413 473.42181540722959 174.33703258866444 773.59286965150386 1225.7042920737877 199.20421423669904 76.020926922559738 616.56832692259923 54.313454668037593 135.43998000118881 228.72793447901495 542.79488796379883 132.37583116721362 146.20205244701356 582.09539603313897 77.256819234229624 145.85519463056698 83.773000910761766 660.34667090908624 134.97713672602549 84.763120250310749 230.71427848492749 790.60651981469709 65.471266160719097 43.707979516591877 561.20101765438449 924.93752098944969 488.19124968373217 78.427680125460029
leaf_count=84134 82296 13833 2901 1321 6031 40774 2827 914 3982 582 2468 2292 7280 2486 597 15465 573 563 1810 16038 3006 2629 4411 8653 293 638 4565 14925 3617 874
internal_value=-3.11593e-11 -0.0122974 0.00422845 0.00179795 0.00107587 -0.0206307 0.0239941 0.0055745 0.0384929 0.0574095 -0.0907639 -0.00108921 0.0175481 0.000420674 0.00483878 -0.00196484 -0.0159081 0.0355467 -0.00672106 -0.0286175 0.000372023 -0.0439684 0.00145167 0.010509 -0.00685341 0.0224871 0.0128013 -0.0143597 0.0471032 0.0534296
internal_weight=19083.3 4882.8 14200.5 12645.5 12471.2 3285.21 1554.97 684.883 870.086 670.882 211.461 11022.4 1448.76 675.171 1597.59 10793.7 1549.33 306.885 161.03 1242.44 9244.34 219.74 9024.59 3183.26 1299.55 1883.71 1351.81 1155.65 531.899 143.899
internal_count=332778 137500 195278 181604 180283 123070 13674 6283 7391 4564 3382 164486 15797 9766 14430 162194 34449 2946 2383 31503 127745 5635 122110 37976 20503 17473 13218 19336 4255 1167
is_linear=0
shrinkage=0.1


Tree=13
num_leaves=31
num_cat=0
split_feature=94 34 74 23 63 42 98 3 102 85 59 103 95 102 62 44 26 88 43 79 71 96 65 97 3 81 95 96 34 46
split_gain=91.931 69.6209 62.265 44.8405 43.881 38.3405 37.6505 58.2153 52.5329 37.442 36.7713 34.8359 34.2424 53.1813 45.2888 35.3062 34.6028 34.1293 44.3159 32.0245 31.5331 31.3161 31.0698 40.7508 31.931 31.6103 46.3405 30.9208 39.9429 30.6137
threshold=1.5000000000000002 0.14870946679053457 1.0000000180025095e-35 0.98242160885125862 52.500000000000007 0.5365990698337556 1300.5000000000002 35.500000000000007 17563.500000000004 0.084103020300000011 0.69499239606757779 78939.500000000015 3.5000000000000004 7657.5000000000009 10.500000000000002 0.081356353654897642 0.65743967890739452 95.500000000000014 0.17557377323311291 1.0000000180025095e-35 1.0000000180025095e-35 17.500000000000004 1.0000000180025095e-35 7.5000000000000009 5.5000000000000009 39.745000000000012 14.500000000000002 220.50000000000003 0.099117429503123536 0.44564722478389746
decision_type=2 2 2 2 2 2 2 2 2 2 2 2 2 2 2 2 2 2 2 2 2 2 2 2 2 2 2 2 2 2
left_child=1 3 9 4 5 22 11 8 10 20 -8 -3 15 14 -14 -6 -17 18 -4 -11 -2 -5 27 24 -24 -25 -27 -1 -29 -16
right_child=2 6 17 21 12 -7 7 -9 -10 19 -12 -13 13 -15 29 16 -18 -19 -20 -21 -22 -23 23 25 -26 26 -28 28 -30 -31
leaf_value=-0.0053535537559725611 -0.0341600658677896 0.042577595069512225 0.044631154984568183 0.0198807858806073 -0.0087542048201275559 0.036000275760031668 -0.12214789619279907 0.093137817991404984 -0.16950172586255005 0.00032629875248828223 0.099392858924159 -0.0065330462592502305 0.010759987832233267 -0.037869691973968965 -0.062589383851136729 0.004362926751743366 0.063860008791542758 0.0077310132465234537 -0.11221619678028255 -0.027087165034103307 0.062454537093628408 0.086130688855576565 0.014286132601341621 0.036229973902978489 -0.031711547443794938 0.016033936814690879 -0.13964077334148142 0.09183398096207529 -0.16002517751968537 0.022674071843786513
leaf_weight=1787.3698204617249 1408.3964371360489 824.30935376067646 27.232289595063776 454.89646781585179 2803.4661062451778 482.27396514918655 12.540595738450067 26.08315734192729 34.043811986455694 1107.5057297685416 18.610373701900244 175.12098959693685 737.72058758372441 669.56136352277827 164.8511736637447 3974.1008599966299 100.21571903536096 1505.0447378651588 53.2144661283819 692.66283563181059 34.611844734870829 84.623668279964477 399.26385863707401 821.38233171252068 242.6294055954786 76.793990534730256 25.461474592797458 58.344103410374373 7.0586735028773537 56.558020649361424
leaf_count=26979 59869 6398 331 5229 41850 4714 280 111 667 34339 70 1990 13877 18996 4160 49830 833 12779 1320 27680 1182 394 4673 7442 4234 730 475 383 78 885
internal_value=2.32307e-11 0.00409415 -0.011902 0.00205004 0.000822801 0.00960522 0.0283575 -0.0331211 -0.0836348 -0.0198417 0.0102061 0.0339724 -0.00320431 -0.0162423 -0.00114444 -0.000116844 0.00582637 0.00433897 -0.0591213 -0.0102218 -0.0318427 0.0302721 0.00588126 0.0162528 -0.00310054 0.0297027 -0.0227289 -0.00288237 0.0646518 -0.0408092
internal_weight=18865.9 14037.3 4828.67 12946.6 12407.1 3900.58 1090.71 91.2779 65.1948 3243.18 31.151 999.43 8506.47 1628.69 959.13 6877.78 4074.32 1585.49 80.4468 1800.17 1443.01 539.52 3418.3 1565.53 641.893 923.638 102.255 1852.77 65.4028 221.409
internal_count=332778 195278 137500 185762 180139 49708 9516 1128 1017 123070 350 8388 130431 37918 18922 92513 50663 14430 1651 62019 61051 5623 44994 17554 8907 8647 1205 27440 461 5045
is_linear=0
shrinkage=0.1


Tree=14
num_leaves=31
num_cat=0
split_feature=94 34 74 22 92 63 91 93 34 92 65 69 63 63 42 102 95 4 84 86 102 92 48 23 86 35 98 0 57 89
split_gain=80.1582 67.8161 47.3066 45.7115 42.1193 43.5342 34.7932 39.7374 34.7343 33.8021 31.4123 32.2022 30.4142 30.184 49.797 46.4086 36.7172 102.986 37.5015 42.1481 34.5771 35.1558 31.4613 31.277 30.4007 34.1529 30.1057 56.1595 56.078 36.4799
threshold=1.5000000000000002 0.13960005850285914 1.0000000180025095e-35 0.38240633904933935 1943.5000000000002 369.50000000000006 0.19638993215000003 27356.500000000004 0.13344162861620826 85.500000000000014 1.0000000180025095e-35 1.0000000180025095e-35 206.50000000000003 30.500000000000004 0.36376306414604193 2756.5000000000005 1.5000000000000002 1.0000000180025095e-35 27.150000000000002 226.50000000000003 17884.500000000004 29.500000000000004 0.089780782554146191 1.2736323231802598 35.500000000000007 4.4611766859889039 126.50000000000001 32.500000000000007 1.1662462651729586 1486.5000000000002
decision_type=2 2 2 2 2 2 2 2 2 2 2 2 2 2 2 2 2 2 2 2 2 2 2 2 2 2 2 2 2 2
left_child=1 3 10 4 5 13 12 8 -8 -3 -2 -12 -4 14 15 -1 17 18 23 -20 21 -18 -19 -15 25 -16 27 -26 -28 -30
right_child=2 9 6 -5 -6 -7 7 -9 -10 -11 11 -13 -14 16 24 -17 20 22 19 -21 -22 -23 -24 -25 26 -27 28 -29 29 -31
leaf_value=-0.032013314405888289 -0.029393077026834913 -0.035689692555044068 0.025413592316758878 0.015164256340576091 0.021531625731117249 -0.044352656109611123 -0.012564016534807203 0.085482036651007162 -0.15805364933444949 0.02740963440598275 -0.0073843286915785305 -0.10222264364605337 -0.045589424023805475 0.0063769849398616412 0.0055364944377558883 0.017145535880929444 -0.076602139974287359 -0.084517848346641888 -0.074096249534050085 0.0049045307446720973 -0.030378216059363701 -0.0043743839657502271 -0.010636718513064219 0.10909490070838734 0.058965826861601123 -0.14113217933452349 -0.070744332528746651 -0.1007536279210515 0.11983814675183568 0.011956280764147592
leaf_weight=410.96964482567273 1409.2911317482358 90.215837741270661 662.52112761395983 2013.9202738342574 749.72953541204333 248.9126997271087 803.54609795223223 40.881988582201302 16.751577342860401 1440.1136496163672 1722.2725880104117 36.562917283852585 66.372402216307819 3996.895306255552 247.84713259129785 360.49886026280001 69.549467673059553 174.14980433310848 124.42572822165675 147.69574323296547 843.12182764732279 2169.3594211643795 86.151515298639424 29.865256056655198 437.11162000522017 16.963062413036823 66.628476036014035 23.181973482482135 40.807601317297667 135.15969220199622
leaf_count=6298 60661 955 4631 24538 8029 4944 8540 154 531 12719 60172 2237 574 46183 3061 4613 1481 5442 1764 1649 21041 42347 2384 144 3967 376 1266 554 185 1338
internal_value=-1.77104e-10 0.0038293 -0.0112052 0.00137684 -0.00129843 -0.00307596 0.00286932 -0.0107396 -0.0155351 0.0236898 -0.0182691 -0.00935584 0.0189481 -0.00198067 0.00990952 -0.00904192 -0.00468692 0.00101247 0.0047108 -0.031218 -0.0131179 -0.00661807 -0.0600655 0.00713881 0.025018 -0.00385872 0.0358971 0.0509218 0.00738977 0.0369746
internal_weight=18681.5 13923.3 4758.2 12392.9 10379 9629.29 1590.07 861.18 820.298 1530.33 3168.13 1758.84 728.894 9380.38 1739.17 771.469 7641.21 4559.18 4298.88 272.121 3082.03 2238.91 260.301 4026.76 967.7 264.81 702.889 460.294 242.596 175.967
internal_count=332778 195278 137500 181604 157066 149037 14430 9225 9071 13674 123070 62409 5205 144093 21658 10911 122435 57566 49740 3413 64869 43828 7826 46327 10747 3437 7310 4521 2789 1523
is_linear=0
shrinkage=0.1


Tree=15
num_leaves=31
num_cat=0
split_feature=94 34 85 93 33 26 65 74 35 99 99 41 88 63 69 95 22 21 63 35 44 63 13 85 81 47 44 92 96 22
split_gain=67.9622 62.259 48.1683 43.3632 43.3311 58.7499 37.5412 36.503 33.7838 36.9315 58.21 32.9737 32.666 31.0812 30.1991 28.8995 28.6088 31.1836 30.4416 32.0379 27.8808 29.5112 36.5582 30.1216 29.857 30.6484 33.6309 28.4617 35.8693 34.6837
threshold=1.5000000000000002 0.11493236380545162 0.17556312585000003 12354.500000000002 0.094121630368754927 0.55193233489990245 1.0000000180025095e-35 1.0000000180025095e-35 4.4821529239416131 1.5000000000000002 15.500000000000002 2.7260466441512112 2216.5000000000005 206.50000000000003 1.0000000180025095e-35 1553.0000000000002 0.32156655192375189 1.1524411812424662 210.50000000000003 3.5298420786857609 0.20772223200140824 30.500000000000004 2.5000000000000004 1.0000000180025095e-35 10.215000000000002 9.2459958155222832 0.074136066962409056 828.50000000000011 2.5000000000000004 0.49211186170578008
decision_type=2 2 2 2 2 2 2 2 2 2 2 2 2 2 2 2 2 2 2 2 2 2 2 2 2 2 2 2 2 2
left_child=1 20 4 8 14 15 -4 -8 9 16 -11 -12 -5 -9 -2 -6 -3 -18 -19 -20 21 22 -1 -24 25 -23 -27 29 -29 -26
right_child=2 3 6 12 5 -7 7 13 -10 10 11 -13 -14 -15 -16 -17 17 18 19 -21 -22 24 23 -25 27 26 -28 28 -30 -31
leaf_value=0.00055167080717018928 -0.0044365739470821489 -0.043433073829026732 -0.017790773944051163 -0.073620771512928548 -0.03196279442617083 0.034869954845346052 0.0052719643740622843 0.062221532765367717 0.024497455173841283 0.031245351063187245 -0.19177470102539848 -0.02536578702786161 0.031805459598022549 -0.071177163796469656 -0.097029162472605276 -0.11405415116832361 -0.0778463584740679 0.026137418458558721 -0.18722199169604814 0.098249950535560779 0.039874546021848423 -0.017251933142859232 -0.16453548068740245 0.031660528741309944 -0.0072614087773933637 0.079083892109415979 -0.024019299614522423 0.01082452428340812 -0.040117092825295048 0.045430753941014465
leaf_weight=1316.8686461325269 1858.785212420742 303.0965331774205 408.61740417068359 30.061796998605132 1402.5402349343349 133.45133877417538 550.54227504192386 223.89053372526541 631.48389896913432 454.67152840318158 12.951556623913346 147.68818104395177 1315.067983256653 18.943882507272065 35.904578324174508 44.236562316422351 42.408483138307929 214.78670020448044 13.693101357202979 5.5145361656323066 171.36268619820476 1876.3125801415881 7.9196338835172346 656.61078739515506 3746.8171289832098 71.236794703872874 56.912275570910424 2477.4979158672504 146.38936603278853 129.22883313987404
leaf_count=17895 50942 4566 11334 440 51980 3643 15500 1192 5936 4370 305 1729 12820 240 1760 909 771 2350 282 36 1780 35563 248 5801 60249 987 780 32065 4979 1326
internal_value=1.70207e-10 0.00352431 -0.0104206 0.0158243 -0.0163893 -0.0286168 0.00683469 0.0195177 0.00578903 -0.00409879 0.0129631 -0.0387825 0.0294493 0.0518149 -0.00619121 -0.0344728 -0.0222151 0.001052 0.0153513 -0.105263 -0.000136007 -0.000789874 0.0102009 0.0293223 -0.00335056 -0.0140204 0.0332947 -6.01832e-05 0.00798244 -0.00550463
internal_weight=18505.5 13828.6 4676.91 3171.42 3474.92 1580.23 1201.99 793.377 1826.29 1194.81 615.311 160.64 1345.13 242.834 1894.69 1446.78 579.499 276.403 233.994 19.2076 10657.2 10485.8 1981.4 664.53 8504.39 2004.46 128.149 6499.93 2623.89 3876.05
internal_count=332778 195278 137500 33605 109234 56532 28266 16932 20345 14409 6404 2034 13260 1432 52702 52889 8005 3439 2668 318 161673 159893 23944 6049 135949 37330 1767 98619 37044 61575
is_linear=0
shrinkage=0.1


Tree=16
num_leaves=31
num_cat=0
split_feature=34 85 71 95 107 47 74 102 60 56 98 3 0 3 96 98 23 24 42 96 36 15 102 92 63 98 82 95 8 62
split_gain=53.9062 49.5548 50.2983 64.2031 71.7584 85.1943 40.7444 39.5066 69.3208 55.8025 70.6373 51.8093 49.9772 49.1089 53.0298 52.3528 48.717 48.263 42.2702 39.1705 37.7786 35.3884 39.4102 35.3165 33.3407 34.3117 33.078 31.6072 31.7091 31.3695
threshold=0.16518826350406549 0.31206861520000007 1.0000000180025095e-35 10.500000000000002 0.051253497800000006 0.16907978107870039 1.5000000000000002 2.5000000000000004 1.0000000180025095e-35 0.20943946391344073 33.500000000000007 6.5000000000000009 2.5000000000000004 3.5000000000000004 1.0000000180025095e-35 66.500000000000014 0.17482812795312799 0.11082404961780071 0.527956783771515 7.5000000000000009 0.50008645653724682 0.06178033663640272 34152.000000000007 1855.0000000000002 84.500000000000014 375.50000000000006 6.8450000000000006 2.5000000000000004 14.500000000000002 2.5000000000000004
decision_type=2 2 2 2 2 2 2 2 2 2 2 2 2 2 2 2 2 2 2 2 2 2 2 2 2 2 2 2 2 2
left_child=1 2 3 7 6 20 -5 8 13 10 12 27 -9 14 18 26 -17 -11 -1 -2 29 22 -14 -4 -7 -26 -15 28 -12 -6
right_child=19 -3 23 4 5 24 -8 9 -10 17 11 -13 21 15 -16 16 -18 -19 -20 -21 -22 -23 -24 -25 25 -27 -28 -29 -30 -31
leaf_value=-0.010204939100288572 0.035018758131396252 0.013113831767113726 0.0116817859886058 -0.028696683574756243 -0.10564784470223142 0.060151852681218282 0.080070982584946826 0.026761751962428484 -0.049953405857040452 0.0068839779635980793 -0.042247217569551569 0.0029498527026153836 -0.11281711804654526 0.039494634970913149 0.067586562415904675 0.057386396454939106 -0.073623709255397685 0.039530763859291704 0.024480998176868433 -0.057192003011847729 -0.049714712340947424 0.042979109254521253 0.04790397983984708 0.068504858398479418 0.032915144871053036 -0.089439068013912548 -0.03027711990173337 -0.0091030396189678373 -0.14149182463935003 -0.0029667770994804554
leaf_weight=977.14620261068922 610.29167459835298 2168.9102540448075 448.7962851364864 2183.0879984187777 30.363570868037641 273.46471901860787 34.992462857626379 663.05075777694583 366.90232520084828 4406.9234548575478 625.86829938704614 576.25945810717531 67.848307376261801 72.469125149538741 135.31044255627785 145.82121975673363 35.244046177016571 504.68695055460557 548.58832236030139 49.828942894702777 216.34964630211471 34.442965500289574 19.682739819400012 144.62437241338193 72.09765141014941 33.60110218054615 1089.2615121395793 321.22398911230266 33.93948414013721 1478.8925481634215
leaf_count=14775 5266 29565 5636 76075 1118 3456 189 9320 10166 57877 11818 9247 1417 1036 1038 1324 804 4785 5581 1517 7597 425 249 1188 1213 1213 20763 9214 973 37933
internal_value=-1.42294e-10 -0.00104585 -0.00302199 -0.00415552 -0.0144302 -0.00120388 -0.0269808 2.49054e-05 -0.00892052 0.00418165 -0.0085191 -0.0208488 0.0159398 -0.00390858 0.00758766 -0.0181295 0.0318855 0.0102386 0.00226663 0.0280583 -0.0106346 -0.0428882 -0.0766764 0.0255303 0.0417162 -0.00598064 -0.0259247 -0.0348281 -0.0473522 -0.00503254
internal_weight=18370 17709.9 15540.9 14947.5 4322.85 2104.77 2218.08 10624.7 3370.74 7253.93 2342.32 1557.29 785.025 3003.84 1661.04 1342.8 181.065 4911.61 1525.73 660.121 1725.61 121.974 87.531 593.421 379.163 105.699 1161.73 981.032 659.808 1509.26
internal_count=332778 325995 296430 289606 128794 52530 76264 160812 55487 105325 42663 31252 11411 45321 21394 23927 2128 62662 20356 6783 46648 2091 1666 6824 5882 2426 21799 22005 12791 39051
is_linear=0
shrinkage=0.1


Tree=17
num_leaves=31
num_cat=0
split_feature=36 95 4 85 49 74 93 63 107 46 85 45 102 46 26 41 63 80 81 20 45 97 51 102 96 102 74 79 47 85
split_gain=49.4886 56.2403 79.245 49.3397 44.917 40.1939 40.8754 57.1905 42.4683 60.5026 39.7883 39.2239 37.2902 40.5153 36.6567 36.0014 48.0899 41.6036 32.1256 38.706 33.3717 31.5834 32.6275 31.1683 30.8104 43.8617 42.1386 29.4714 35.2086 29.2658
threshold=0.5367284119129182 1.5000000000000002 1.0000000180025095e-35 0.28717881430000008 3.5000000000000004 1.0000000180025095e-35 71448.000000000015 68.500000000000014 0.36451048950000003 0.34100043773651129 0.073425437450000006 111.68613160587849 59934.500000000007 0.51195934414863598 0.46983031928539282 4.9183963835239419 87.500000000000014 0.37451298701298702 14.505000000000001 0.023853358972044138 2.1923861056566243 6.5000000000000009 15.500000000000002 16005.500000000002 1.0000000180025095e-35 374.50000000000006 1.0000000180025095e-35 1.0000000180025095e-35 24.898910202528949 0.087213030800000022
decision_type=2 2 2 2 2 2 2 2 2 2 2 2 2 2 2 2 2 2 2 2 2 2 2 2 2 2 2 2 2 2
left_child=1 2 12 5 14 6 7 8 10 -10 -3 -8 13 15 -5 17 -17 -1 19 20 24 22 -18 -12 -2 -26 -27 28 -9 -19
right_child=18 3 -4 4 -6 -7 11 27 9 -11 23 -13 -14 -15 -16 16 21 29 -20 -21 -22 -23 -24 -25 25 26 -28 -29 -30 -31
leaf_value=0.0040313718351164011 0.0042595857617629424 -0.022264739061516263 -0.043473041085083673 0.0033539914653760491 -0.17767254905013891 0.0051012048346329398 -0.010603236288352139 -0.020085160013856525 -0.011622166926040477 0.087556239413025608 0.013916937280318743 0.060250338360199711 0.034457932192737288 -0.042889472992889442 0.044780166543100242 0.048426039874379684 -0.014036549198636809 0.015320459819311691 0.023366401446848116 0.021923153484991059 -0.09287066853386905 0.021492574215363561 -0.18408737412880238 -0.015352069619452331 0.059818226276118394 -0.066880432757955355 0.059071549604101985 -0.047136611475624549 -0.14512434890433279 -0.088728219297874486
leaf_weight=3896.0361897076946 969.60685645660851 1527.4207424338674 321.38894761109259 1203.5924672096735 12.767944637686012 1281.9690427072928 177.79258784488775 1816.2159990547225 139.96450939390343 109.73252797219902 810.57111266045831 139.38505808170885 472.67196414107457 169.93206891138107 259.68786452780478 436.68158560059965 242.85358257952612 40.019185983110219 1294.6541412438964 708.75823442148976 43.8847066515591 488.86700796347577 11.832798402290789 660.13175359007437 42.590241484576836 204.11271825421136 30.53651284147054 601.39747512794565 22.802113291807473 83.302418148610741
leaf_count=45919 12311 47989 9189 22171 280 12869 4033 49790 3178 504 16062 2216 3908 2190 3322 3238 3503 386 17773 9500 1240 4342 492 21739 415 7919 276 23409 1214 1401
internal_value=-3.86833e-11 -0.00244821 0.00487089 -0.00759596 0.00907639 -0.0109729 -0.0144042 -0.0163524 -0.0076606 0.031963 -0.0109606 0.0205337 0.00753037 0.00515997 0.0107059 0.00673031 0.022086 0.0022213 0.0110938 0.00314735 -0.0071627 0.00661676 -0.0219372 0.000779409 -0.00414607 -0.0335437 -0.0504894 -0.0279198 -0.0216355 -0.0549633
internal_weight=18221.2 14927 6163.59 8763.43 1476.05 7287.38 6005.41 5688.24 3247.82 249.697 2998.12 317.178 5842.2 5369.52 1463.28 5199.59 1180.23 4019.36 3294.14 1999.49 1290.73 743.553 254.686 1470.7 1246.85 277.239 234.649 2440.42 1839.02 123.322
internal_count=332778 283344 74568 208776 25773 183003 170134 163885 89472 3682 85790 6249 65379 61471 25493 59281 11575 47706 49434 31661 22161 8337 3995 37801 20921 8610 8195 74413 51004 1787
is_linear=0
shrinkage=0.1


Tree=18
num_leaves=31
num_cat=0
split_feature=44 65 87 22 93 23 1 85 74 84 65 38 95 4 25 20 46 92 52 81 41 95 63 60 90 87 85 90 107 74
split_gain=47.1164 43.0776 47.4986 45.5509 34.9342 31.4159 30.9497 30.9194 33.1569 30.3398 30.1451 27.6157 28.8629 91.5439 29.4652 32.4841 28.0757 34.6479 27.532 30.9171 25.4836 32.0183 25.636 25.4451 25.2346 29.5856 25.213 29.9754 24.9575 24.7189
threshold=0.13526040572266232 1.0000000180025095e-35 320.50000000000006 0.3677628636360169 1692.5000000000002 0.88260561415781646 2.5000000000000004 0.26568885660000008 1.0000000180025095e-35 48.550000000000004 3.5000000000000004 0.89444444444444449 1.5000000000000002 1.0000000180025095e-35 3.976127073168755 0.0080651467696568457 0.57032603025436412 109.50000000000001 0.17871845513582232 5.035000000000001 2.2531534433364873 17.500000000000004 141.50000000000003 1.5000000000000002 1276.5000000000002 600.50000000000011 0.23739406780000002 523.50000000000011 0.013111898150000002 1.5000000000000002
decision_type=2 2 2 2 2 2 2 2 2 2 2 2 2 2 2 2 2 2 2 2 2 2 2 2 2 2 2 2 2 2
left_child=1 2 4 -4 6 -5 -1 11 9 -9 -11 12 13 18 -15 -16 20 -18 19 -3 22 23 -14 -22 25 -2 27 -24 29 -23
right_child=24 7 3 5 -6 -7 -8 8 -10 10 -12 -13 16 14 15 -17 17 -19 -20 -21 21 28 26 -25 -26 -27 -28 -29 -30 -31
leaf_value=0.014612700442900148 -0.04556477276816822 -0.14391507860028183 -0.010475903845129315 0.005233319565819735 -0.12283401904211869 0.054295495304209788 -0.071622043684706566 0.011986950387916594 0.059565434787072616 -0.055467601978407589 0.087175929513579054 0.05275847204291112 0.013582322290185078 -0.091166207930918786 0.13975266606202175 -0.041475486780222691 -0.12472991294191967 0.042995503543021923 -0.0072664557250219919 0.017169078058513851 -0.0096081359639785934 -0.050342959069541442 0.037039082981188451 0.028712016724246888 0.029930875798653361 0.010403924706257455 -0.16276114864730917 -0.036179232901978886 -0.015824855746928893 0.10488949718314595
leaf_weight=78.847990552196279 101.35245830658823 11.984778417740015 5139.4003336796304 910.68327821232378 54.937216183170676 152.34703037445433 88.14594118797686 2204.3910098201013 138.39584739273414 115.84119791025296 16.988015660550445 94.316412838641554 776.92608304158784 120.90924840827938 12.140230537392197 53.372911505866796 13.271241637412457 171.15627757064067 658.07556893106084 2046.249346170458 1424.7584329731762 403.34821167297196 78.361032895278186 197.27313461503945 672.6892127180472 1386.2782569357078 12.092082147952167 195.20021976446151 752.83245773072122 10.525705117732285
leaf_count=1643 2225 177 113277 16906 1752 2006 2289 31130 755 2155 197 1384 18297 3663 129 1520 374 2701 7641 20843 27913 15710 1437 2927 8909 18289 545 5496 20455 33
internal_value=2.24722e-11 -0.00187907 -0.00820492 -0.00657842 -0.0536616 0.0122646 -0.0309054 0.00239499 0.0120063 0.00919016 -0.0372244 -0.000988295 -0.00171889 0.00588607 -0.0619018 -0.00789212 -0.00718879 0.0309261 0.0105384 0.0162311 -0.009014 -0.0140351 0.00416399 -0.0049476 0.0138585 0.00659077 -0.0214522 -0.015206 -0.0266692 -0.0463951
internal_weight=18093.1 15932.8 6424.36 6202.43 221.931 1063.03 166.994 9508.41 2475.62 2337.22 132.829 7032.79 6938.48 2902.73 186.422 65.5131 4035.74 184.428 2716.31 2058.23 3851.32 2788.74 1062.58 1622.03 2160.32 1487.63 285.653 273.561 1166.71 413.874
internal_count=332778 303355 137873 132189 5684 18912 3932 165482 34237 33482 2352 131245 129861 33973 5312 1649 95888 3075 28661 21020 92813 67038 25775 30840 29423 20514 7478 6933 36198 15743
is_linear=0
shrinkage=0.1


Tree=19
num_leaves=31
num_cat=0
split_feature=34 87 85 95 59 98 0 84 26 80 98 3 52 93 81 95 59 102 80 74 107 46 102 28 65 102 63 93 42 57
split_gain=45.7814 48.0638 35.4082 31.4375 32.1008 51.3166 36.8585 36.6178 30.5352 40.4132 30.3585 64.1249 30.8139 40.4509 37.3447 29.7968 34.0957 31.9218 30.6908 30.2642 30.645 42.9613 29.1001 37.5122 36.3916 30.3881 29.5537 29.5185 28.0776 27.9866
threshold=0.12214238211741436 641.50000000000011 0.084103020300000011 18.500000000000004 0.55495481127060098 56.500000000000007 12.500000000000002 13.850000000000003 0.46983031928539282 -0.27461419753086408 477.50000000000006 15.500000000000002 0.1329164654016495 12523.000000000002 29.395000000000003 1.5000000000000002 5.8032894736842122 53054.500000000007 0.11251183712121214 1.0000000180025095e-35 0.36451048950000003 0.34100043773651129 9297.0000000000018 0.10555555555555557 1.0000000180025095e-35 10585.500000000002 23.500000000000004 1424.5000000000002 0.39487509429454809 5.1729366183280954
decision_type=2 2 2 2 2 2 2 2 2 2 2 2 2 2 2 2 2 2 2 2 2 2 2 2 2 2 2 2 2 2
left_child=2 -2 15 4 10 6 -6 -8 22 -10 12 29 14 -14 -3 16 17 18 -1 20 -17 -22 23 26 25 -24 27 -4 -15 -12
right_child=1 3 8 -5 5 -7 7 -9 9 -11 11 -13 13 28 -16 19 -18 -19 -20 -21 21 -23 24 -25 -26 -27 -28 -29 -30 -31
leaf_value=-0.010562400685248222 -0.044968427695161517 0.02990872142832602 -0.010263562746311362 -0.01387466656257479 0.05959336553990216 0.050266485815403252 -0.11097606664764359 0.0072570651286735545 0.091065004629631185 0.010210745938088782 -0.071125483432997946 0.038811896219140468 -0.033893548377005749 -0.1560845676228092 -0.1010260551369222 -0.020969919668667621 -0.18593193934065511 0.04477851354396812 0.020556389124670733 0.0083972372773135923 -0.024458516019918913 0.087935081748785004 -0.10224238368488642 -0.1815079844687606 -0.00079409080910211583 -0.019463137161758792 0.00074256271477979416 0.035199173276062534 0.038361443371325951 0.038938390073198284
leaf_weight=1123.1591998629738 143.01783923385665 955.62691188370809 197.04764180467464 341.85884761926718 45.673631332814693 561.12072458467446 49.165126833599061 56.066275994293392 64.14097562036477 1707.144593451987 156.3143052032683 121.49135854979977 226.68958142527845 7.7659256546758106 22.291156398598105 2676.8522059435491 9.6459801313467306 162.55024121690076 441.5143838803051 486.66638243471971 73.488017959985882 63.306097471155226 46.154409215087071 10.938728129491208 2124.7824611703982 1132.1799235418439 4295.4185946288344 518.93836102460045 169.71194650954567 27.109247531043366
leaf_count=14871 2872 9438 2956 10299 408 4285 1189 725 589 26492 3197 1073 3074 213 354 85628 248 1208 5201 5084 1788 460 1430 328 41402 30700 69823 5758 1457 228
internal_value=-2.74436e-10 0.0115473 -0.00220043 0.0144962 0.018539 0.0363444 -0.0154231 -0.0479826 0.00121605 0.0131386 0.011024 -0.0175361 0.0173249 -0.00590117 0.0269241 -0.00904858 0.00155334 0.00260038 -0.0017814 -0.0146281 -0.0186107 0.0275554 -0.00132053 0.00347406 -0.00861065 -0.0227055 0.00387784 0.0226873 0.029853 -0.0548585
internal_weight=18017.8 2883.9 15133.9 2740.89 2399.03 712.026 150.905 105.231 10096.7 1771.29 1687 304.915 1382.09 404.167 977.918 5037.18 1736.87 1727.22 1564.67 3300.31 2813.65 136.794 8325.46 5022.34 3303.12 1178.33 5011.4 715.986 177.478 183.424
internal_count=332778 38812 293966 35940 25641 6607 2322 1914 179478 27081 19034 4498 14536 4744 9792 114488 21528 21280 20072 92960 87876 2248 152397 78865 73532 32130 78537 8714 1670 3425
is_linear=0
shrinkage=0.1


Tree=20
num_leaves=31
num_cat=0
split_feature=33 87 63 64 91 75 8 65 77 64 36 65 91 68 44 8 98 42 87 96 83 81 83 81 42 91 63 81 80 43
split_gain=42.8396 40.9919 32.968 32.023 40.0149 34.1186 32.3835 31.5624 30.3722 39.4383 29.3701 28.6798 31.9035 28.1371 42.8324 31.3537 27.5745 28.963 25.7427 25.6327 25.242 25.2083 36.4328 26.3124 24.8335 39.6177 25.7223 26.3717 25.1901 29.3744
threshold=1.1576034121313847 6087.5000000000009 100.50000000000001 1.0000000180025095e-35 0.17777180290000003 1.0000000180025095e-35 66.500000000000014 4.5000000000000009 1.0000000180025095e-35 1.0000000180025095e-35 0.4465197771787644 5.5000000000000009 0.23548907375000003 1.0000000180025095e-35 0.080030800725426385 3.5000000000000004 1461.5000000000002 0.45636111497879034 429.50000000000006 473.50000000000006 3.9500000000000006 21.095000000000002 14.850000000000003 14.505000000000001 0.48232054710388189 0.20158118550000001 72.500000000000014 6.7150000000000007 -0.17487373737373732 1.3712516771622669
decision_type=2 2 2 2 2 2 2 2 2 2 2 2 2 2 2 2 2 2 2 2 2 2 2 2 2 2 2 2 2 2
left_child=1 2 3 4 16 6 11 -4 13 -10 -2 12 19 24 -15 -16 17 -1 -19 -5 -12 23 -23 -11 26 28 -3 -28 29 -26
right_child=10 8 7 5 -6 -7 -8 -9 9 21 20 -13 -14 14 15 -17 -18 18 -20 -21 -22 22 -24 -25 25 -27 27 -29 -30 -31
leaf_value=0.0086395600988229179 -0.021113208555078002 0.0062609255104118522 -0.016879583753506257 -0.020521324614468227 -0.0052462790203485375 -0.16460902305730254 -0.092527212265860248 0.013840057377785859 0.049172397289586917 -0.0071347542651144158 -0.12933663043516794 0.0772780363142202 0.0097493665847787538 -0.13429977416152714 0.036940447322463703 -0.10613682793027655 -0.0083054867421824153 -0.10384984672182865 0.038418149392669215 0.057240309622351507 0.025120504627613019 -0.14156992576216876 0.070880020865486768 0.047455375592411239 0.046229983643062911 0.037035279831232691 -0.13246313932020579 -0.010918191257464641 0.0016309236323791638 -0.19670947917671805
leaf_weight=984.80643837235402 169.22821746696718 1473.9750484055839 2989.8963125048031 1392.2611668121535 2466.0896292696125 14.454439666122196 46.984364916803315 376.57998224999756 335.78894740645774 266.54023265198339 10.683940146351231 38.198128137039021 573.38012155238539 37.597713994793594 54.01034888997674 21.37850819947198 453.73798430146417 12.97143092099577 652.53157787374221 43.721264832187444 1093.291922484641 25.700344509910792 11.76807552250102 132.03070264053531 184.54366258252412 455.99894843669608 18.071739454520866 1461.8229637115728 2109.7454159144545 5.1150076463818541
leaf_count=15281 3206 30635 59841 29405 48802 419 1276 5908 3259 4681 178 401 10635 1620 1121 723 11874 272 8183 840 13504 512 106 1326 2651 6694 711 31243 37314 157
internal_value=-1.38274e-10 -0.00135275 -0.00537404 -0.00130693 0.00339683 -0.0114998 -0.0104432 -0.0134432 0.0047734 0.0234134 0.0176792 -0.00855968 -0.0101915 0.00230238 -0.047114 -0.00363291 0.0135271 0.0195298 0.0356452 -0.0181537 0.0236257 0.00357673 -0.0748437 0.0109488 0.00328033 0.0101089 -0.00308946 -0.0124024 0.00476911 0.039678
internal_weight=17912.9 16639.7 10045.6 6679.14 4570.14 2109 2094.55 3366.48 6594.09 771.828 1273.2 2047.56 2009.36 5822.26 112.987 75.3889 2104.05 1650.31 665.503 1435.98 1103.98 436.039 37.4684 398.571 5709.27 2755.4 2953.87 1479.89 2299.4 189.659
internal_count=332778 315890 193137 127388 84412 42976 42557 65749 122753 9884 16888 41281 40880 112869 3464 1844 35610 23736 8455 30245 13682 6625 618 6007 109405 46816 62589 31954 40122 2808
is_linear=0
shrinkage=0.1


Tree=21
num_leaves=31
num_cat=0
split_feature=44 92 86 22 74 96 102 93 91 6 92 103 99 63 46 34 93 107 33 24 89 63 81 80 43 33 86 82 36 59
split_gain=42.8704 39.6525 32.0873 31.4362 36.7498 44.7353 60.6017 52.0899 34.8724 29.5331 31.641 29.0924 35.4865 29.0953 28.4292 28.2209 42.1872 32.8292 36.575 31.9937 28.1702 26.4705 26.3773 26.0096 26.5682 32.4491 29.16 28.2263 25.9535 25.8955
threshold=0.14193332459131044 1436.5000000000002 54.500000000000007 0.34423154592514044 1.0000000180025095e-35 1.5000000000000002 7102.5000000000009 1523.5000000000002 0.070732615850000014 23.500000000000004 913.50000000000011 95379.500000000015 33.500000000000007 105.50000000000001 0.50230208039283764 0.12069000144945068 3239.0000000000005 0.60357142855000012 0.32631878564981448 0.12270687898926667 160.50000000000003 243.50000000000003 39.745000000000012 0.20494633838383841 0.64923915992892656 0.83048080212310105 8.5000000000000018 31.735000000000003 0.50008645653724682 0.44112877583465826
decision_type=2 2 2 2 2 2 2 2 2 2 2 2 2 2 2 2 2 2 2 2 2 2 2 2 2 2 2 2 2 2
left_child=1 3 -3 4 5 11 7 -7 -6 10 -9 12 23 -13 -14 17 19 21 -19 -17 28 -5 -20 -1 26 -26 -25 -27 -10 -2
right_child=29 2 -4 15 8 6 -8 9 20 -11 -12 13 14 -15 -16 16 -18 18 22 -21 -22 -23 -24 24 25 27 -28 -29 -30 -31
leaf_value=-0.0011815205071055929 0.0079347464126371583 -0.08749029112452554 0.012347428313131625 -0.0014373817700283225 0.081369612571331795 -0.090992668347993355 -0.028995948821472967 -0.0080875419124819391 -0.017434755998420117 0.059488806783832997 0.050544968154057027 -0.0092868889101595051 0.038554833697418613 -0.053824343983298273 -0.10306384517700645 -0.049719652360016742 0.031035127268136276 -0.059907527474770406 0.056708100144260254 0.067132706185138877 0.015156117346252407 -0.046372687501817444 -0.058564352281979287 -0.091825426194335646 -0.071415472084900358 -0.18949038586198252 0.0070764191767189307 0.017756353903217528 -0.14760284141870864 0.036332895507586255
leaf_weight=4973.8400814159249 1275.5911602595006 32.675657651619986 2173.7047034564894 2595.7213978797663 67.902973102405667 53.374241832527332 1886.7228835040005 494.2347924762289 132.78947518288624 108.42612408217974 113.10179132805206 453.51101736968849 288.57629144238308 216.8008917607367 14.907283784355966 122.3202502054628 681.59813991514966 37.357029909268022 221.34035180835053 28.982671829406172 723.02252126089297 138.06821729266085 21.806595124769956 33.412256130715832 178.00016752909869 7.1229526358656576 276.59424967982341 84.918427323689684 17.314781215041876 429.12573752843309
leaf_count=77180 17607 996 33504 50038 255 1369 78802 13047 1986 1463 1880 7242 3405 4915 257 1950 8532 806 1306 251 6316 3417 304 852 3670 165 4416 1123 768 4956
internal_value=-1.3658e-10 -0.00158936 0.0108689 -0.00355672 -0.0064807 -0.00840927 -0.0193513 0.0043075 0.0123403 0.011414 0.00283135 -0.00395739 -0.00169901 -0.0236918 0.0315984 0.00413822 0.0204315 -0.0003639 0.0322161 -0.0273361 0.0069719 -0.00370681 0.0463699 -0.0035185 -0.0235578 -0.0464886 -0.00358314 0.00171782 -0.0324499 0.0150834
internal_weight=17882.9 16178.1 2206.38 13971.8 10124.6 9183.54 2655.86 769.137 941.03 715.763 607.337 6527.68 5857.37 670.312 303.484 3847.19 832.901 3014.29 280.504 151.303 873.127 2733.79 243.147 5553.89 580.048 270.042 310.007 92.0414 150.104 1704.72
internal_count=332778 310215 34500 275715 209111 199786 96561 17759 9325 16390 14927 103225 91068 12157 3662 66604 10733 55871 2416 2201 9070 53455 1610 87406 10226 4958 5268 1288 2754 22563
is_linear=0
shrinkage=0.1


Tree=22
num_leaves=31
num_cat=0
split_feature=92 94 74 33 96 91 97 96 82 48 3 89 23 0 91 63 0 46 35 83 94 43 99 99 2 41 63 97 103 85
split_gain=39.1973 35.4611 49.8866 45.5765 41.9163 42.4762 39.6897 53.5728 51.767 50.3559 44.8419 34.7165 33.5691 33.2283 29.2433 28.5077 31.0954 29.7665 32.8173 27.6047 26.9234 26.1891 31.3202 45.323 37.227 30.9771 28.6336 26.6321 32.682 31.5788
threshold=2094.5000000000005 1.0000000180025095e-35 1.0000000180025095e-35 0.87331786641244313 1.0000000180025095e-35 0.053151812450000009 7.5000000000000009 4.5000000000000009 -7.629999999999999 0.10495125356948497 3.5000000000000004 10130.500000000002 0.46404101724155694 1.5000000000000002 0.056623511300000005 77.500000000000014 46.500000000000007 0.49731014668941503 0.28181192278862005 1.8500000000000003 1740.5000000000002 1.0073805382689989 3.5000000000000004 10.500000000000002 7.5000000000000009 3.8807546645402913 41.500000000000007 3.5000000000000004 34710.500000000007 0.049073477250000004
decision_type=2 2 2 2 2 2 2 2 2 2 2 2 2 2 2 2 2 2 2 2 2 2 2 2 2 2 2 2 2 2
left_child=1 3 4 21 5 -3 7 8 -5 -8 -10 -7 -9 -11 -4 17 -17 18 19 -6 -19 -1 26 24 -24 -25 -23 -27 -29 -30
right_child=-2 2 14 6 15 11 9 12 10 13 -12 -13 -14 -15 -16 16 -18 20 -20 -21 -22 22 23 25 -26 27 -28 28 29 -31
leaf_value=-0.0038281249423165117 0.021188965581627139 -0.21765391365217593 0.070743633366684308 0.11594502933426548 -0.080086586779094554 0.013302982115661548 0.029264457979992275 -0.11495326545088487 0.0058123804720020995 -0.12751373894162649 -0.055099126654502131 0.12462079329040393 0.070864829135254381 -0.0085822783002890198 0.0039196735496571048 -0.027781734915226192 -0.12406969487457552 0.042604136369312151 -0.026028372407694008 0.005237806347513585 -0.11850749405416679 0.035609279056386806 0.053824346387474666 -0.1400670757488621 -0.064319336174301689 -0.14929030519965208 -0.0068971194682167563 0.043818398900234937 -0.1679197126235541 -0.0046168802617725354
leaf_weight=7871.5355789638706 832.19102210039273 6.0558331683278075 68.885597284417599 26.399538370547816 39.913407013984397 77.149998403823702 1425.8781933712307 10.68553398340009 218.89414498617407 27.990677937865257 269.86378287436673 43.990669894497842 107.83953864080831 146.15434988169 1327.7944562978228 1042.5573458179715 34.65397469943855 145.66988814901561 1032.8951579618151 758.14452189509757 11.167517604772 183.1268007052131 406.30118477554061 15.039288892410694 28.544586654519662 10.798946154769508 1177.370515585877 170.75379763997626 12.422015774995087 253.40231567551382
leaf_count=125872 11010 74 271 238 2027 1777 12465 227 3030 738 7053 166 427 1440 13803 45341 2180 3047 43802 27658 614 1911 3598 356 586 348 17584 1793 318 3024
internal_value=-1.26281e-10 -0.0010402 -0.00854736 0.0017463 -0.0154441 0.0408062 0.0146759 -0.00650542 -0.0204521 0.0230647 -0.0278194 0.0537266 0.0541125 -0.0276984 0.0072155 -0.0177784 -0.0308793 -0.0106789 -0.0142604 0.000970463 0.0311323 -0.00110492 0.00838934 0.0228925 0.046069 0.0010978 -0.00117564 0.00584328 0.00968058 -0.012248
internal_weight=17784.1 16951.9 4588.88 12363 3192.2 127.197 2233.71 633.683 515.157 1600.02 488.758 121.141 118.525 174.145 1396.68 3065 1077.21 1987.79 1830.95 798.058 156.837 10129.3 2257.76 897.262 434.846 462.416 1360.5 447.377 436.578 265.824
internal_count=332778 321768 140760 181008 126686 2017 25618 10975 10321 14643 10083 1943 654 2178 14074 124669 47521 77148 73487 29685 3661 155390 29518 10023 4184 5839 19495 5483 5135 3342
is_linear=0
shrinkage=0.1


Tree=23
num_leaves=31
num_cat=0
split_feature=42 85 71 95 4 4 94 95 74 102 25 93 13 103 99 35 41 103 97 3 33 45 83 8 98 23 62 44 3 59
split_gain=38.4476 31.6317 31.788 36.8079 73.843 43.501 61.2706 42.5542 41.254 37.6362 50.5364 42.3045 40.3854 57.2404 57.4972 100.959 46.6603 36.0758 35.7962 49.1109 36.9505 34.8511 34.7565 32.6379 32.4608 32.0539 31.5265 30.193 30.1324 29.9022
threshold=0.59935143589973461 0.31206861520000007 1.0000000180025095e-35 2.5000000000000004 1.5000000000000002 1.5000000000000002 1.0000000180025095e-35 320.50000000000006 1.0000000180025095e-35 1.5000000000000002 0.89576125890016567 61473.000000000007 1.0000000180025095e-35 197.00000000000003 2.5000000000000004 0.8165690451860429 1.880450211465359 78939.500000000015 23.500000000000004 12.500000000000002 0.1666418805104937 7.4056417047977456 14.250000000000002 11.500000000000002 22.500000000000004 0.50650380221850644 13.500000000000002 0.098386670047161021 13.500000000000002 9.8750000000000018
decision_type=2 2 2 2 2 2 2 2 2 2 2 2 2 2 2 2 2 2 2 2 2 2 2 2 2 2 2 2 2 2
left_child=1 2 3 4 9 8 7 26 22 10 -1 12 13 18 15 -15 27 -18 23 20 -20 -8 -5 25 -6 -11 -7 -16 -27 -24
right_child=-2 -3 -4 5 24 6 21 -9 -10 11 -12 -13 -14 14 16 -17 17 -19 19 -21 -22 -23 29 -25 -26 28 -28 -29 -30 -31
leaf_value=0.00076931242736598448 0.012667341550376288 0.010048476495467373 0.020301614457834002 -0.015255319197575596 -0.021117328972658826 0.031939689487025663 -0.040280168587055742 -0.11699683680768343 0.0046703881325685951 -0.0093023355749471109 -0.035941420350364288 0.067367817592845117 0.016753671362942899 0.057236108560116121 -0.019892775254162425 -0.12578863087144238 0.025383005432645097 -0.023164897100539893 -0.062132481905422254 -0.0010572495675251882 -0.18052651619431878 0.023404860433758747 -0.047248103898539111 -0.082222904876387004 -0.085489844257291461 0.091874431800052989 -0.07160553471288475 -0.10229040701900463 -0.13699115042042706 0.16565881963890045
leaf_weight=1458.4889989666408 2110.0178418285213 1992.4831332950271 541.25619791145436 3523.3277608185308 208.76959311636165 722.28137885173783 317.89887080492917 20.88138087792322 935.31280339183286 516.60366553661879 504.76827986096032 116.48130601085722 2030.0925607613754 367.19939243176486 298.75715537671931 32.833614017814398 551.03793048241641 211.93518126150593 149.08031624997966 122.35209245060105 32.023471360560507 117.7604675963521 462.99312361399643 54.448494689073414 125.38139666820643 54.170480128377676 30.652515911962837 52.248362927231938 6.436212830245494 6.69200743921101
leaf_count=19805 30929 27976 6409 121367 5335 6584 12419 672 10278 7503 12602 991 20099 3300 4873 657 5515 2691 3555 1351 698 3046 17125 879 4112 293 538 1026 129 21
internal_value=-1.23431e-10 -0.00171725 -0.00344453 -0.00443086 0.000584267 -0.0100631 0.00693082 0.023819 -0.0142337 0.00292042 -0.00866929 0.00787148 0.00632429 -0.00232068 0.00969404 0.0422139 -0.00198395 0.0118976 -0.0217733 -0.0500012 -0.0830674 -0.0230658 -0.0186617 -0.00821227 -0.0452714 -0.00123082 0.0277243 -0.0321579 0.0675697 -0.0442146
internal_weight=17674.7 15564.6 13572.2 13030.9 6893.11 6137.8 1209.47 773.815 4928.33 6558.96 1963.26 4595.7 4479.22 2449.13 1514.01 400.033 1113.98 762.973 935.115 303.456 181.104 435.659 3993.01 631.659 334.151 577.21 752.934 351.006 60.6067 469.685
internal_count=332778 301849 273873 267464 95414 172050 23259 7794 148791 85967 32407 53560 52569 32470 18062 3957 14105 8206 14408 5604 4253 15465 138513 8804 9447 7925 7122 5899 422 17146
is_linear=0
shrinkage=0.1


Tree=24
num_leaves=31
num_cat=0
split_feature=92 22 47 93 96 102 102 79 63 63 83 44 21 102 95 107 96 19 90 80 42 16 44 53 63 83 90 56 93 83
split_gain=32.9803 36.534 32.3968 41.1566 27.9454 70.3036 61.822 55.4659 33.553 32.2738 32.0634 31.982 29.5419 26.3047 25.2724 27.421 25.0937 25.7863 24.2309 25.0734 43.471 24.2201 24.2008 24.1275 25.5991 24.97 23.8919 23.8747 23.8502 23.8139
threshold=779.50000000000011 0.34423154592514044 18.584245035979329 22394.500000000004 1.0000000180025095e-35 10585.500000000002 47611.000000000007 1.0000000180025095e-35 77.500000000000014 206.50000000000003 6.9500000000000011 0.083400813035500038 8.6696829255670327 16.500000000000004 10.500000000000002 0.023635347900000003 1.0000000180025095e-35 0.21180919417852034 456.50000000000006 -0.096396103896103882 0.54988303780555736 -0.0025610269360269357 0.093609005642862439 4.0645383447408685 72.500000000000014 5.1500000000000012 39.500000000000007 0.52983698248863231 19729.000000000004 7.7500000000000009
decision_type=2 2 2 2 2 2 2 2 2 2 2 2 2 2 2 2 2 2 2 2 2 2 2 2 2 2 2 2 2 2
left_child=1 2 14 22 6 23 -2 8 21 11 -10 -9 -11 16 -1 -16 17 -3 -17 20 -20 -7 -4 25 -25 -6 29 -8 -23 -15
right_child=4 13 3 -5 5 7 27 9 10 12 -12 -13 -14 26 15 18 -18 -19 19 -21 -22 28 -24 24 -26 -27 -28 -29 -30 -31
leaf_value=-0.0019539482674407575 0.0069642758235233934 -0.00098187228121612608 0.013723314215212348 -0.16668695893706711 -0.064207926794276768 -0.097375868894588158 0.052439735341252826 -0.012749503361281481 -0.0053227876186126375 -0.10725431876085226 -0.076470810736745151 0.030432946247241632 0.076706425443375761 0.0010552517655936465 -0.025358428318696585 0.0077285761695227899 0.041835809815460208 -0.043579410204775293 -0.097305425372797072 -0.01078739126752737 0.079870646302104442 -0.038345794146733128 -0.13620648841875871 0.044404480793484934 -0.11952145020055004 0.041494906355404433 0.010554276384150673 -0.15176206605794318 0.021474243966422262 -0.17792256946989107
leaf_weight=5460.1283928570338 3360.6009930763394 323.73776106012519 47.203854643157683 28.096062704222277 23.60796874621883 30.405206387978978 377.67768710386008 334.83837208186742 84.730340152513236 43.700038282317109 250.9134050764842 351.61497178464197 10.908541731070725 16.609244690509517 1165.8731437932584 764.66357395035448 74.920213023899123 253.29581497213803 76.92631526500918 806.11105908706668 16.888274085591547 113.81094975699671 13.946933756582437 17.158713144250214 21.417091135634109 418.85125096829142 2863.725083430938 5.8137065465562037 160.84160832501948 13.457788384519516
leaf_count=88231 44343 5705 811 1703 638 1320 3215 8229 3298 1666 9488 6886 192 196 43132 16742 773 6242 3219 21667 327 4058 377 313 612 6469 47774 105 4586 461
internal_value=-5.27553e-11 -0.00297391 -0.00657425 -0.0665023 0.00632535 -0.0036835 0.0113051 -0.0151459 -0.0366934 0.00348337 -0.0585101 0.0093694 -0.0705066 0.00553498 -0.00592914 -0.0135975 -0.0126113 -0.0196806 -0.00536021 -0.0164817 -0.0654106 -0.0126892 -0.0204718 0.0292421 -0.0466064 0.035855 0.00962323 0.049344 -0.00331408 -0.0790539
internal_weight=17532.5 11925.6 8379.84 89.2469 5606.89 1862.8 3744.09 1381.76 640.702 741.062 335.644 686.453 54.6086 3545.75 8290.59 2830.46 651.954 577.034 1664.59 899.926 93.8146 305.058 61.1508 481.035 38.5758 442.459 2893.79 383.491 274.653 30.067
internal_count=332778 237360 176209 2891 95418 47755 47663 39723 22750 16973 12786 15115 1858 61151 173318 85087 12720 11947 41955 25213 3546 9964 1188 8032 925 7107 48431 3320 8644 657
is_linear=0
shrinkage=0.1


Tree=25
num_leaves=31
num_cat=0
split_feature=92 87 43 24 83 102 63 96 74 102 46 102 23 98 3 0 34 103 44 82 98 3 97 3 3 6 102 63 102 98
split_gain=34.3844 30.9408 29.911 31.6454 29.7246 29.3233 26.8407 28.1868 60.0538 67.1358 36.6542 34.0889 40.0869 37.0051 69.7626 51.3881 35.2204 32.4864 34.6889 29.9948 27.2544 39.0864 35.5359 40.4711 34.0545 26.3809 25.1023 30.4509 25.0936 29.93
threshold=1943.5000000000002 25217.500000000004 1.4247482271988317 0.13955410382187558 6.5500000000000007 123811.00000000001 77.500000000000014 1.0000000180025095e-35 1.0000000180025095e-35 7100.0000000000009 0.54714694619178783 10585.500000000002 0.056210634286375946 88.500000000000014 6.5000000000000009 9.5000000000000018 0.10696151948200079 6047.5000000000009 0.084430180925571779 15.625000000000002 33.500000000000007 10.500000000000002 21.500000000000004 19.500000000000004 6.5000000000000009 2.5000000000000004 71.500000000000014 89.500000000000014 1030.5000000000002 1.5000000000000002
decision_type=2 2 2 2 2 2 2 2 2 2 2 2 2 2 2 2 2 2 2 2 2 2 2 2 2 2 2 2 2 2
left_child=2 4 3 6 -2 -6 -1 11 9 10 -9 12 28 14 -14 17 20 18 -15 -18 24 -22 23 -23 -13 -19 -16 -28 -8 -30
right_child=1 -3 -4 -5 5 -7 7 8 -10 -11 -12 16 13 15 26 -17 19 25 -20 -21 21 22 -24 -25 -26 -27 27 -29 29 -31
leaf_value=0.0012645351216032748 -0.039473147643518856 0.069091917581869819 0.016330545203728553 0.031273645703002069 0.023413156284185312 -0.030300387761462322 0.0056801840597986795 -0.0013653012929876072 0.021141121287232674 -0.036394101404587466 0.092175180794188599 0.072676208535339043 -0.0074049837793839848 -0.014954139719588836 -0.046712709401839622 0.01094554110351767 -0.1803600417272877 0.011823954766479974 -0.14300412279564853 0.032656697948390483 -0.034831441957519936 0.014010401751834529 0.031508160181245769 -0.12773633208654397 -0.032349002765941062 -0.10872416784750544 -0.0045781868761756005 -0.12397808388916409 0.098226460257618886 -0.029348985995491017
leaf_weight=7735.8455184213817 103.23965246486478 102.31101446249522 919.58568635839038 276.75201981374994 849.07064088305924 115.45564674586058 1835.6883326161187 417.21404758875724 344.39922380167991 1277.2045226658811 46.566998244263232 92.508152091410011 484.64200184494257 34.840137257706374 293.77399308711756 596.79788371536415 6.6924871581140897 91.642547472380102 53.863171990728006 537.95512356609106 342.27439918206073 49.549337109783664 256.25371827057097 33.93996564229019 46.338594282977283 22.638391685904935 26.89655670709908 103.75687737262342 19.395090498961508 354.72508895536885
leaf_count=153307 2517 967 11882 3646 10058 2618 27818 7956 2717 53247 337 799 8908 662 8844 7518 163 1170 1708 4583 6657 544 2652 726 769 622 349 2316 132 6586
internal_value=3.03734e-12 0.0165585 -0.00118851 -0.00223584 0.0115249 0.0169835 -0.00284978 -0.0071686 -0.0170132 -0.0245608 0.00802685 -0.00328346 -0.00802475 -0.0195263 -0.0333291 -0.00383748 0.0103228 -0.0473013 -0.0927097 0.0300392 -0.00275911 -0.0109806 0.0130479 -0.0436123 0.0376252 -0.0120559 -0.0629311 -0.0993982 0.000869459 -0.0227352
internal_weight=17471.8 1170.08 16301.7 15382.2 1067.77 964.526 15105.4 7369.56 2085.38 1740.99 463.781 5284.17 3918.66 1708.85 909.069 799.782 1365.51 202.984 88.7033 544.648 820.864 682.017 339.743 83.4893 138.847 114.281 424.427 130.653 2209.81 374.12
internal_count=332778 16160 316618 304736 15193 12676 301090 147783 64257 61540 8293 83526 66633 32097 20417 11680 16893 4162 2370 4746 12147 10579 3922 1270 1568 1792 11509 2665 34536 6718
is_linear=0
shrinkage=0.1


Tree=26
num_leaves=31
num_cat=0
split_feature=95 4 4 94 74 34 7 20 63 95 25 82 95 4 4 102 36 65 87 32 82 33 91 95 26 60 89 82 87 98
split_gain=32.8135 93.0519 43.5602 70.0935 56.5194 41.906 32.5743 31.676 38.3376 29.9241 32.0356 27.2887 26.9823 213.129 117.127 34.7865 31.0653 26.9712 31.0143 31.3051 27.8264 26.6403 25.8379 24.9259 24.1325 23.9757 23.5039 23.5012 23.3874 23.8885
threshold=2.5000000000000004 1.5000000000000002 1.5000000000000002 1.0000000180025095e-35 1.0000000180025095e-35 0.11580630718178998 1.5000000000000002 0.008189020030432044 95.500000000000014 1322.0000000000002 1.6758515536785128 -12.949999999999998 1.5000000000000002 1.0000000180025095e-35 1.0000000180025095e-35 3.5000000000000004 0.44995093345642095 1.0000000180025095e-35 17760.500000000004 0.099954718498645054 -7.629999999999999 0.15208057029177721 0.16142124650000003 329.50000000000006 0.57121488451957714 1.0000000180025095e-35 23830.500000000004 64.185000000000016 699.50000000000011 5145.0000000000009
decision_type=2 2 2 2 2 2 2 2 2 2 2 2 2 2 2 2 2 2 2 2 2 2 2 2 2 2 2 2 2 2
left_child=1 5 4 24 17 -1 -3 -8 -9 10 -5 -7 13 15 27 16 -13 18 19 -2 28 22 -15 -12 -4 -18 -6 -14 -19 -30
right_child=2 6 3 9 26 11 7 8 -10 -11 23 12 14 21 -16 -17 25 20 -20 -21 -22 -23 -24 -25 -26 -27 -28 -29 29 -31
leaf_value=0.0028907237102979095 -0.030283471153908 -0.08708178132846052 0.018588341808725515 -0.070714993819641178 0.003147895250216335 -0.13531204090664758 0.053278880602932704 -0.013241281887282323 -0.096163906338871702 -0.18503759897925781 -0.015575330666272653 -0.10206274637906095 0.0019568495494753828 0.067910735572233524 0.082178620785211653 0.037400407180249701 0.021172669966077574 0.038610338808251495 0.0084232362517432432 0.037267715886035717 -0.0049211361928083435 -0.1220030100772684 -0.13869007141525533 0.041905747342976897 0.072492554381024657 -0.080246104415012787 0.037197665061249989 -0.077607118796494165 -0.072683225986888769 0.064019828924400654
leaf_weight=6992.0566329030553 1664.4384023945313 114.53038960660342 1172.0236672761384 89.476707768859342 1162.5425345196854 11.20700646471232 44.610749526065774 188.78047553129727 79.122177316108719 10.54351776500698 463.90780773351435 29.432119567412883 139.46259322785772 16.110623574815694 284.33316562091932 879.74306526407599 177.2269041526597 28.227419053670019 278.96403506980278 71.55330772139132 2718.7132216160244 116.55989038257394 9.6966712172143144 90.090164212160744 89.387771832291037 26.839667147491127 245.54633420449682 50.591434290865436 141.46136178920278 14.052886005956678
leaf_count=93869 67058 3536 11107 4133 12263 243 794 4813 2898 460 14424 621 1821 176 1294 5715 1773 728 7659 1917 80502 2715 288 2213 485 676 1415 879 5882 421
internal_value=1.49954e-10 0.00411879 -0.00457829 0.00863379 -0.00857904 0.00634751 -0.0414597 -0.02474 -0.0377316 -0.017933 -0.015195 0.0202287 0.0212363 0.01356 0.0415542 0.0282934 -0.0060186 -0.0136373 -0.0225258 -0.0274992 -0.00746661 -0.101648 -0.00971616 -0.00622786 0.0224082 0.00783366 0.00908559 -0.0192227 -0.0451304 -0.0603302
internal_weight=17401.2 9160.3 8240.93 1915.43 6325.5 8733.26 427.044 312.513 267.903 654.018 643.475 1741.2 1730 1255.61 474.387 1113.24 233.499 4917.41 2014.96 1735.99 2902.45 142.367 25.8073 553.998 1261.41 204.067 1408.09 190.054 183.742 155.514
internal_count=332778 122111 210667 32822 177845 110070 12041 8505 7711 21230 20770 16201 15958 11964 3994 8785 3070 164167 76634 68975 87533 3179 464 16637 11592 2449 13678 2700 7031 6303
is_linear=0
shrinkage=0.1


Tree=27
num_leaves=31
num_cat=0
split_feature=34 94 86 62 85 82 82 74 81 20 19 46 49 83 97 59 56 22 45 95 99 91 36 82 92 103 81 63 90 23
